digraph Tree {
node [shape=box] ;
0 [label="X[4] <= 0.5\ngini = 0.5\nsamples = 8241\nvalue = [4148, 4093]"] ;
1 [label="X[0] <= 0.035\ngini = 0.464\nsamples = 5770\nvalue = [3662, 2108]"] ;
0 -> 1 [labeldistance=2.5, labelangle=45, headlabel="True"] ;
2 [label="X[0] <= 0.027\ngini = 0.295\nsamples = 685\nvalue = [562, 123]"] ;
1 -> 2 ;
3 [label="X[0] <= 0.008\ngini = 0.198\nsamples = 225\nvalue = [200, 25]"] ;
2 -> 3 ;
4 [label="gini = 0.0\nsamples = 1\nvalue = [0, 1]"] ;
3 -> 4 ;
5 [label="X[2] <= 0.5\ngini = 0.191\nsamples = 224\nvalue = [200, 24]"] ;
3 -> 5 ;
6 [label="X[1] <= 0.789\ngini = 0.105\nsamples = 126\nvalue = [119, 7]"] ;
5 -> 6 ;
7 [label="X[1] <= 0.711\ngini = 0.143\nsamples = 90\nvalue = [83, 7]"] ;
6 -> 7 ;
8 [label="X[0] <= 0.027\ngini = 0.128\nsamples = 87\nvalue = [81, 6]"] ;
7 -> 8 ;
9 [label="X[0] <= 0.026\ngini = 0.175\nsamples = 62\nvalue = [56, 6]"] ;
8 -> 9 ;
10 [label="X[1] <= 0.368\ngini = 0.089\nsamples = 43\nvalue = [41, 2]"] ;
9 -> 10 ;
11 [label="X[1] <= 0.263\ngini = 0.375\nsamples = 4\nvalue = [3, 1]"] ;
10 -> 11 ;
12 [label="gini = 0.0\nsamples = 3\nvalue = [3, 0]"] ;
11 -> 12 ;
13 [label="gini = 0.0\nsamples = 1\nvalue = [0, 1]"] ;
11 -> 13 ;
14 [label="X[0] <= 0.026\ngini = 0.05\nsamples = 39\nvalue = [38, 1]"] ;
10 -> 14 ;
15 [label="gini = 0.0\nsamples = 30\nvalue = [30, 0]"] ;
14 -> 15 ;
16 [label="X[0] <= 0.026\ngini = 0.198\nsamples = 9\nvalue = [8, 1]"] ;
14 -> 16 ;
17 [label="X[1] <= 0.5\ngini = 0.375\nsamples = 4\nvalue = [3, 1]"] ;
16 -> 17 ;
18 [label="X[3] <= 0.5\ngini = 0.5\nsamples = 2\nvalue = [1, 1]"] ;
17 -> 18 ;
19 [label="gini = 0.0\nsamples = 1\nvalue = [0, 1]"] ;
18 -> 19 ;
20 [label="gini = 0.0\nsamples = 1\nvalue = [1, 0]"] ;
18 -> 20 ;
21 [label="gini = 0.0\nsamples = 2\nvalue = [2, 0]"] ;
17 -> 21 ;
22 [label="gini = 0.0\nsamples = 5\nvalue = [5, 0]"] ;
16 -> 22 ;
23 [label="X[2] <= 0.056\ngini = 0.332\nsamples = 19\nvalue = [15, 4]"] ;
9 -> 23 ;
24 [label="gini = 0.0\nsamples = 3\nvalue = [3, 0]"] ;
23 -> 24 ;
25 [label="X[2] <= 0.167\ngini = 0.375\nsamples = 16\nvalue = [12, 4]"] ;
23 -> 25 ;
26 [label="gini = 0.0\nsamples = 1\nvalue = [0, 1]"] ;
25 -> 26 ;
27 [label="X[3] <= 0.5\ngini = 0.32\nsamples = 15\nvalue = [12, 3]"] ;
25 -> 27 ;
28 [label="gini = 0.0\nsamples = 5\nvalue = [5, 0]"] ;
27 -> 28 ;
29 [label="X[0] <= 0.026\ngini = 0.42\nsamples = 10\nvalue = [7, 3]"] ;
27 -> 29 ;
30 [label="X[1] <= 0.447\ngini = 0.48\nsamples = 5\nvalue = [3, 2]"] ;
29 -> 30 ;
31 [label="gini = 0.0\nsamples = 1\nvalue = [1, 0]"] ;
30 -> 31 ;
32 [label="gini = 0.5\nsamples = 4\nvalue = [2, 2]"] ;
30 -> 32 ;
33 [label="X[1] <= 0.579\ngini = 0.32\nsamples = 5\nvalue = [4, 1]"] ;
29 -> 33 ;
34 [label="gini = 0.0\nsamples = 2\nvalue = [2, 0]"] ;
33 -> 34 ;
35 [label="gini = 0.444\nsamples = 3\nvalue = [2, 1]"] ;
33 -> 35 ;
36 [label="gini = 0.0\nsamples = 25\nvalue = [25, 0]"] ;
8 -> 36 ;
37 [label="X[2] <= 0.056\ngini = 0.444\nsamples = 3\nvalue = [2, 1]"] ;
7 -> 37 ;
38 [label="X[3] <= 0.5\ngini = 0.5\nsamples = 2\nvalue = [1, 1]"] ;
37 -> 38 ;
39 [label="gini = 0.0\nsamples = 1\nvalue = [1, 0]"] ;
38 -> 39 ;
40 [label="gini = 0.0\nsamples = 1\nvalue = [0, 1]"] ;
38 -> 40 ;
41 [label="gini = 0.0\nsamples = 1\nvalue = [1, 0]"] ;
37 -> 41 ;
42 [label="gini = 0.0\nsamples = 36\nvalue = [36, 0]"] ;
6 -> 42 ;
43 [label="X[2] <= 0.611\ngini = 0.287\nsamples = 98\nvalue = [81, 17]"] ;
5 -> 43 ;
44 [label="X[1] <= 0.816\ngini = 0.483\nsamples = 22\nvalue = [13, 9]"] ;
43 -> 44 ;
45 [label="X[0] <= 0.026\ngini = 0.48\nsamples = 15\nvalue = [6, 9]"] ;
44 -> 45 ;
46 [label="X[1] <= 0.395\ngini = 0.219\nsamples = 8\nvalue = [1, 7]"] ;
45 -> 46 ;
47 [label="gini = 0.0\nsamples = 1\nvalue = [1, 0]"] ;
46 -> 47 ;
48 [label="gini = 0.0\nsamples = 7\nvalue = [0, 7]"] ;
46 -> 48 ;
49 [label="X[1] <= 0.395\ngini = 0.408\nsamples = 7\nvalue = [5, 2]"] ;
45 -> 49 ;
50 [label="gini = 0.0\nsamples = 1\nvalue = [0, 1]"] ;
49 -> 50 ;
51 [label="X[1] <= 0.605\ngini = 0.278\nsamples = 6\nvalue = [5, 1]"] ;
49 -> 51 ;
52 [label="gini = 0.0\nsamples = 5\nvalue = [5, 0]"] ;
51 -> 52 ;
53 [label="gini = 0.0\nsamples = 1\nvalue = [0, 1]"] ;
51 -> 53 ;
54 [label="gini = 0.0\nsamples = 7\nvalue = [7, 0]"] ;
44 -> 54 ;
55 [label="X[1] <= 0.974\ngini = 0.188\nsamples = 76\nvalue = [68, 8]"] ;
43 -> 55 ;
56 [label="X[2] <= 0.722\ngini = 0.134\nsamples = 69\nvalue = [64, 5]"] ;
55 -> 56 ;
57 [label="X[0] <= 0.026\ngini = 0.346\nsamples = 9\nvalue = [7, 2]"] ;
56 -> 57 ;
58 [label="gini = 0.0\nsamples = 6\nvalue = [6, 0]"] ;
57 -> 58 ;
59 [label="X[3] <= 0.5\ngini = 0.444\nsamples = 3\nvalue = [1, 2]"] ;
57 -> 59 ;
60 [label="gini = 0.0\nsamples = 1\nvalue = [1, 0]"] ;
59 -> 60 ;
61 [label="gini = 0.0\nsamples = 2\nvalue = [0, 2]"] ;
59 -> 61 ;
62 [label="X[1] <= 0.026\ngini = 0.095\nsamples = 60\nvalue = [57, 3]"] ;
56 -> 62 ;
63 [label="X[0] <= 0.026\ngini = 0.375\nsamples = 4\nvalue = [3, 1]"] ;
62 -> 63 ;
64 [label="gini = 0.0\nsamples = 1\nvalue = [1, 0]"] ;
63 -> 64 ;
65 [label="X[0] <= 0.026\ngini = 0.444\nsamples = 3\nvalue = [2, 1]"] ;
63 -> 65 ;
66 [label="gini = 0.5\nsamples = 2\nvalue = [1, 1]"] ;
65 -> 66 ;
67 [label="gini = 0.0\nsamples = 1\nvalue = [1, 0]"] ;
65 -> 67 ;
68 [label="X[0] <= 0.026\ngini = 0.069\nsamples = 56\nvalue = [54, 2]"] ;
62 -> 68 ;
69 [label="X[0] <= 0.026\ngini = 0.108\nsamples = 35\nvalue = [33, 2]"] ;
68 -> 69 ;
70 [label="gini = 0.0\nsamples = 20\nvalue = [20, 0]"] ;
69 -> 70 ;
71 [label="X[2] <= 0.833\ngini = 0.231\nsamples = 15\nvalue = [13, 2]"] ;
69 -> 71 ;
72 [label="X[1] <= 0.605\ngini = 0.153\nsamples = 12\nvalue = [11, 1]"] ;
71 -> 72 ;
73 [label="gini = 0.0\nsamples = 8\nvalue = [8, 0]"] ;
72 -> 73 ;
74 [label="X[1] <= 0.737\ngini = 0.375\nsamples = 4\nvalue = [3, 1]"] ;
72 -> 74 ;
75 [label="gini = 0.5\nsamples = 2\nvalue = [1, 1]"] ;
74 -> 75 ;
76 [label="gini = 0.0\nsamples = 2\nvalue = [2, 0]"] ;
74 -> 76 ;
77 [label="X[1] <= 0.605\ngini = 0.444\nsamples = 3\nvalue = [2, 1]"] ;
71 -> 77 ;
78 [label="gini = 0.0\nsamples = 1\nvalue = [0, 1]"] ;
77 -> 78 ;
79 [label="gini = 0.0\nsamples = 2\nvalue = [2, 0]"] ;
77 -> 79 ;
80 [label="gini = 0.0\nsamples = 21\nvalue = [21, 0]"] ;
68 -> 80 ;
81 [label="X[0] <= 0.026\ngini = 0.49\nsamples = 7\nvalue = [4, 3]"] ;
55 -> 81 ;
82 [label="X[0] <= 0.026\ngini = 0.375\nsamples = 4\nvalue = [1, 3]"] ;
81 -> 82 ;
83 [label="X[3] <= 0.5\ngini = 0.5\nsamples = 2\nvalue = [1, 1]"] ;
82 -> 83 ;
84 [label="gini = 0.0\nsamples = 1\nvalue = [1, 0]"] ;
83 -> 84 ;
85 [label="gini = 0.0\nsamples = 1\nvalue = [0, 1]"] ;
83 -> 85 ;
86 [label="gini = 0.0\nsamples = 2\nvalue = [0, 2]"] ;
82 -> 86 ;
87 [label="gini = 0.0\nsamples = 3\nvalue = [3, 0]"] ;
81 -> 87 ;
88 [label="X[1] <= 0.5\ngini = 0.335\nsamples = 460\nvalue = [362, 98]"] ;
2 -> 88 ;
89 [label="X[2] <= 0.167\ngini = 0.382\nsamples = 198\nvalue = [147, 51]"] ;
88 -> 89 ;
90 [label="X[0] <= 0.027\ngini = 0.499\nsamples = 23\nvalue = [11, 12]"] ;
89 -> 90 ;
91 [label="gini = 0.0\nsamples = 3\nvalue = [3, 0]"] ;
90 -> 91 ;
92 [label="X[0] <= 0.035\ngini = 0.48\nsamples = 20\nvalue = [8, 12]"] ;
90 -> 92 ;
93 [label="X[0] <= 0.033\ngini = 0.465\nsamples = 19\nvalue = [7, 12]"] ;
92 -> 93 ;
94 [label="X[1] <= 0.316\ngini = 0.492\nsamples = 16\nvalue = [7, 9]"] ;
93 -> 94 ;
95 [label="gini = 0.0\nsamples = 2\nvalue = [0, 2]"] ;
94 -> 95 ;
96 [label="X[0] <= 0.027\ngini = 0.5\nsamples = 14\nvalue = [7, 7]"] ;
94 -> 96 ;
97 [label="gini = 0.0\nsamples = 2\nvalue = [0, 2]"] ;
96 -> 97 ;
98 [label="X[0] <= 0.03\ngini = 0.486\nsamples = 12\nvalue = [7, 5]"] ;
96 -> 98 ;
99 [label="X[2] <= 0.056\ngini = 0.278\nsamples = 6\nvalue = [5, 1]"] ;
98 -> 99 ;
100 [label="gini = 0.0\nsamples = 3\nvalue = [3, 0]"] ;
99 -> 100 ;
101 [label="X[0] <= 0.028\ngini = 0.444\nsamples = 3\nvalue = [2, 1]"] ;
99 -> 101 ;
102 [label="gini = 0.0\nsamples = 1\nvalue = [1, 0]"] ;
101 -> 102 ;
103 [label="X[1] <= 0.447\ngini = 0.5\nsamples = 2\nvalue = [1, 1]"] ;
101 -> 103 ;
104 [label="gini = 0.0\nsamples = 1\nvalue = [1, 0]"] ;
103 -> 104 ;
105 [label="gini = 0.0\nsamples = 1\nvalue = [0, 1]"] ;
103 -> 105 ;
106 [label="X[0] <= 0.031\ngini = 0.444\nsamples = 6\nvalue = [2, 4]"] ;
98 -> 106 ;
107 [label="X[1] <= 0.447\ngini = 0.32\nsamples = 5\nvalue = [1, 4]"] ;
106 -> 107 ;
108 [label="X[3] <= 0.5\ngini = 0.444\nsamples = 3\nvalue = [1, 2]"] ;
107 -> 108 ;
109 [label="gini = 0.0\nsamples = 1\nvalue = [1, 0]"] ;
108 -> 109 ;
110 [label="gini = 0.0\nsamples = 2\nvalue = [0, 2]"] ;
108 -> 110 ;
111 [label="gini = 0.0\nsamples = 2\nvalue = [0, 2]"] ;
107 -> 111 ;
112 [label="gini = 0.0\nsamples = 1\nvalue = [1, 0]"] ;
106 -> 112 ;
113 [label="gini = 0.0\nsamples = 3\nvalue = [0, 3]"] ;
93 -> 113 ;
114 [label="gini = 0.0\nsamples = 1\nvalue = [1, 0]"] ;
92 -> 114 ;
115 [label="X[0] <= 0.035\ngini = 0.346\nsamples = 175\nvalue = [136, 39]"] ;
89 -> 115 ;
116 [label="X[0] <= 0.031\ngini = 0.327\nsamples = 165\nvalue = [131, 34]"] ;
115 -> 116 ;
117 [label="X[0] <= 0.03\ngini = 0.373\nsamples = 109\nvalue = [82, 27]"] ;
116 -> 117 ;
118 [label="X[0] <= 0.028\ngini = 0.346\nsamples = 99\nvalue = [77, 22]"] ;
117 -> 118 ;
119 [label="X[0] <= 0.028\ngini = 0.394\nsamples = 63\nvalue = [46, 17]"] ;
118 -> 119 ;
120 [label="X[0] <= 0.028\ngini = 0.341\nsamples = 55\nvalue = [43, 12]"] ;
119 -> 120 ;
121 [label="X[0] <= 0.028\ngini = 0.399\nsamples = 40\nvalue = [29, 11]"] ;
120 -> 121 ;
122 [label="X[3] <= 0.5\ngini = 0.32\nsamples = 35\nvalue = [28, 7]"] ;
121 -> 122 ;
123 [label="X[0] <= 0.027\ngini = 0.245\nsamples = 21\nvalue = [18, 3]"] ;
122 -> 123 ;
124 [label="gini = 0.397\nsamples = 11\nvalue = [8, 3]"] ;
123 -> 124 ;
125 [label="gini = 0.0\nsamples = 10\nvalue = [10, 0]"] ;
123 -> 125 ;
126 [label="X[0] <= 0.027\ngini = 0.408\nsamples = 14\nvalue = [10, 4]"] ;
122 -> 126 ;
127 [label="gini = 0.0\nsamples = 6\nvalue = [6, 0]"] ;
126 -> 127 ;
128 [label="gini = 0.5\nsamples = 8\nvalue = [4, 4]"] ;
126 -> 128 ;
129 [label="X[1] <= 0.395\ngini = 0.32\nsamples = 5\nvalue = [1, 4]"] ;
121 -> 129 ;
130 [label="X[3] <= 0.5\ngini = 0.5\nsamples = 2\nvalue = [1, 1]"] ;
129 -> 130 ;
131 [label="gini = 0.0\nsamples = 1\nvalue = [1, 0]"] ;
130 -> 131 ;
132 [label="gini = 0.0\nsamples = 1\nvalue = [0, 1]"] ;
130 -> 132 ;
133 [label="gini = 0.0\nsamples = 3\nvalue = [0, 3]"] ;
129 -> 133 ;
134 [label="X[1] <= 0.211\ngini = 0.124\nsamples = 15\nvalue = [14, 1]"] ;
120 -> 134 ;
135 [label="X[2] <= 0.611\ngini = 0.5\nsamples = 2\nvalue = [1, 1]"] ;
134 -> 135 ;
136 [label="gini = 0.0\nsamples = 1\nvalue = [0, 1]"] ;
135 -> 136 ;
137 [label="gini = 0.0\nsamples = 1\nvalue = [1, 0]"] ;
135 -> 137 ;
138 [label="gini = 0.0\nsamples = 13\nvalue = [13, 0]"] ;
134 -> 138 ;
139 [label="X[2] <= 0.722\ngini = 0.469\nsamples = 8\nvalue = [3, 5]"] ;
119 -> 139 ;
140 [label="X[1] <= 0.447\ngini = 0.408\nsamples = 7\nvalue = [2, 5]"] ;
139 -> 140 ;
141 [label="gini = 0.0\nsamples = 1\nvalue = [0, 1]"] ;
140 -> 141 ;
142 [label="X[3] <= 0.5\ngini = 0.444\nsamples = 6\nvalue = [2, 4]"] ;
140 -> 142 ;
143 [label="gini = 0.5\nsamples = 2\nvalue = [1, 1]"] ;
142 -> 143 ;
144 [label="X[2] <= 0.5\ngini = 0.375\nsamples = 4\nvalue = [1, 3]"] ;
142 -> 144 ;
145 [label="gini = 0.0\nsamples = 2\nvalue = [0, 2]"] ;
144 -> 145 ;
146 [label="gini = 0.5\nsamples = 2\nvalue = [1, 1]"] ;
144 -> 146 ;
147 [label="gini = 0.0\nsamples = 1\nvalue = [1, 0]"] ;
139 -> 147 ;
148 [label="X[2] <= 0.333\ngini = 0.239\nsamples = 36\nvalue = [31, 5]"] ;
118 -> 148 ;
149 [label="X[0] <= 0.029\ngini = 0.5\nsamples = 2\nvalue = [1, 1]"] ;
148 -> 149 ;
150 [label="gini = 0.0\nsamples = 1\nvalue = [0, 1]"] ;
149 -> 150 ;
151 [label="gini = 0.0\nsamples = 1\nvalue = [1, 0]"] ;
149 -> 151 ;
152 [label="X[2] <= 0.833\ngini = 0.208\nsamples = 34\nvalue = [30, 4]"] ;
148 -> 152 ;
153 [label="X[0] <= 0.029\ngini = 0.17\nsamples = 32\nvalue = [29, 3]"] ;
152 -> 153 ;
154 [label="gini = 0.0\nsamples = 9\nvalue = [9, 0]"] ;
153 -> 154 ;
155 [label="X[2] <= 0.722\ngini = 0.227\nsamples = 23\nvalue = [20, 3]"] ;
153 -> 155 ;
156 [label="X[3] <= 0.5\ngini = 0.18\nsamples = 20\nvalue = [18, 2]"] ;
155 -> 156 ;
157 [label="gini = 0.278\nsamples = 12\nvalue = [10, 2]"] ;
156 -> 157 ;
158 [label="gini = 0.0\nsamples = 8\nvalue = [8, 0]"] ;
156 -> 158 ;
159 [label="X[3] <= 0.5\ngini = 0.444\nsamples = 3\nvalue = [2, 1]"] ;
155 -> 159 ;
160 [label="gini = 0.0\nsamples = 2\nvalue = [2, 0]"] ;
159 -> 160 ;
161 [label="gini = 0.0\nsamples = 1\nvalue = [0, 1]"] ;
159 -> 161 ;
162 [label="X[0] <= 0.029\ngini = 0.5\nsamples = 2\nvalue = [1, 1]"] ;
152 -> 162 ;
163 [label="gini = 0.0\nsamples = 1\nvalue = [0, 1]"] ;
162 -> 163 ;
164 [label="gini = 0.0\nsamples = 1\nvalue = [1, 0]"] ;
162 -> 164 ;
165 [label="X[3] <= 0.5\ngini = 0.5\nsamples = 10\nvalue = [5, 5]"] ;
117 -> 165 ;
166 [label="X[1] <= 0.211\ngini = 0.278\nsamples = 6\nvalue = [5, 1]"] ;
165 -> 166 ;
167 [label="gini = 0.0\nsamples = 1\nvalue = [0, 1]"] ;
166 -> 167 ;
168 [label="gini = 0.0\nsamples = 5\nvalue = [5, 0]"] ;
166 -> 168 ;
169 [label="gini = 0.0\nsamples = 4\nvalue = [0, 4]"] ;
165 -> 169 ;
170 [label="X[0] <= 0.032\ngini = 0.219\nsamples = 56\nvalue = [49, 7]"] ;
116 -> 170 ;
171 [label="gini = 0.0\nsamples = 23\nvalue = [23, 0]"] ;
170 -> 171 ;
172 [label="X[0] <= 0.032\ngini = 0.334\nsamples = 33\nvalue = [26, 7]"] ;
170 -> 172 ;
173 [label="gini = 0.0\nsamples = 1\nvalue = [0, 1]"] ;
172 -> 173 ;
174 [label="X[1] <= 0.132\ngini = 0.305\nsamples = 32\nvalue = [26, 6]"] ;
172 -> 174 ;
175 [label="X[3] <= 0.5\ngini = 0.5\nsamples = 2\nvalue = [1, 1]"] ;
174 -> 175 ;
176 [label="gini = 0.0\nsamples = 1\nvalue = [1, 0]"] ;
175 -> 176 ;
177 [label="gini = 0.0\nsamples = 1\nvalue = [0, 1]"] ;
175 -> 177 ;
178 [label="X[1] <= 0.395\ngini = 0.278\nsamples = 30\nvalue = [25, 5]"] ;
174 -> 178 ;
179 [label="gini = 0.0\nsamples = 5\nvalue = [5, 0]"] ;
178 -> 179 ;
180 [label="X[0] <= 0.033\ngini = 0.32\nsamples = 25\nvalue = [20, 5]"] ;
178 -> 180 ;
181 [label="gini = 0.0\nsamples = 3\nvalue = [3, 0]"] ;
180 -> 181 ;
182 [label="X[0] <= 0.033\ngini = 0.351\nsamples = 22\nvalue = [17, 5]"] ;
180 -> 182 ;
183 [label="gini = 0.0\nsamples = 1\nvalue = [0, 1]"] ;
182 -> 183 ;
184 [label="X[2] <= 0.333\ngini = 0.308\nsamples = 21\nvalue = [17, 4]"] ;
182 -> 184 ;
185 [label="gini = 0.5\nsamples = 2\nvalue = [1, 1]"] ;
184 -> 185 ;
186 [label="gini = 0.266\nsamples = 19\nvalue = [16, 3]"] ;
184 -> 186 ;
187 [label="X[2] <= 0.5\ngini = 0.5\nsamples = 10\nvalue = [5, 5]"] ;
115 -> 187 ;
188 [label="X[2] <= 0.333\ngini = 0.375\nsamples = 4\nvalue = [1, 3]"] ;
187 -> 188 ;
189 [label="gini = 0.0\nsamples = 1\nvalue = [1, 0]"] ;
188 -> 189 ;
190 [label="gini = 0.0\nsamples = 3\nvalue = [0, 3]"] ;
188 -> 190 ;
191 [label="X[2] <= 0.611\ngini = 0.444\nsamples = 6\nvalue = [4, 2]"] ;
187 -> 191 ;
192 [label="gini = 0.0\nsamples = 3\nvalue = [3, 0]"] ;
191 -> 192 ;
193 [label="X[1] <= 0.447\ngini = 0.444\nsamples = 3\nvalue = [1, 2]"] ;
191 -> 193 ;
194 [label="gini = 0.0\nsamples = 2\nvalue = [0, 2]"] ;
193 -> 194 ;
195 [label="gini = 0.0\nsamples = 1\nvalue = [1, 0]"] ;
193 -> 195 ;
196 [label="X[0] <= 0.031\ngini = 0.294\nsamples = 262\nvalue = [215, 47]"] ;
88 -> 196 ;
197 [label="X[1] <= 0.789\ngini = 0.245\nsamples = 189\nvalue = [162, 27]"] ;
196 -> 197 ;
198 [label="X[0] <= 0.031\ngini = 0.126\nsamples = 74\nvalue = [69, 5]"] ;
197 -> 198 ;
199 [label="X[2] <= 0.611\ngini = 0.108\nsamples = 70\nvalue = [66, 4]"] ;
198 -> 199 ;
200 [label="X[2] <= 0.389\ngini = 0.145\nsamples = 51\nvalue = [47, 4]"] ;
199 -> 200 ;
201 [label="gini = 0.0\nsamples = 12\nvalue = [12, 0]"] ;
200 -> 201 ;
202 [label="X[3] <= 0.5\ngini = 0.184\nsamples = 39\nvalue = [35, 4]"] ;
200 -> 202 ;
203 [label="X[1] <= 0.658\ngini = 0.095\nsamples = 20\nvalue = [19, 1]"] ;
202 -> 203 ;
204 [label="gini = 0.0\nsamples = 11\nvalue = [11, 0]"] ;
203 -> 204 ;
205 [label="X[0] <= 0.028\ngini = 0.198\nsamples = 9\nvalue = [8, 1]"] ;
203 -> 205 ;
206 [label="X[0] <= 0.027\ngini = 0.375\nsamples = 4\nvalue = [3, 1]"] ;
205 -> 206 ;
207 [label="gini = 0.0\nsamples = 3\nvalue = [3, 0]"] ;
206 -> 207 ;
208 [label="gini = 0.0\nsamples = 1\nvalue = [0, 1]"] ;
206 -> 208 ;
209 [label="gini = 0.0\nsamples = 5\nvalue = [5, 0]"] ;
205 -> 209 ;
210 [label="X[0] <= 0.029\ngini = 0.266\nsamples = 19\nvalue = [16, 3]"] ;
202 -> 210 ;
211 [label="X[2] <= 0.5\ngini = 0.153\nsamples = 12\nvalue = [11, 1]"] ;
210 -> 211 ;
212 [label="gini = 0.0\nsamples = 10\nvalue = [10, 0]"] ;
211 -> 212 ;
213 [label="X[0] <= 0.027\ngini = 0.5\nsamples = 2\nvalue = [1, 1]"] ;
211 -> 213 ;
214 [label="gini = 0.0\nsamples = 1\nvalue = [0, 1]"] ;
213 -> 214 ;
215 [label="gini = 0.0\nsamples = 1\nvalue = [1, 0]"] ;
213 -> 215 ;
216 [label="X[0] <= 0.03\ngini = 0.408\nsamples = 7\nvalue = [5, 2]"] ;
210 -> 216 ;
217 [label="X[2] <= 0.5\ngini = 0.48\nsamples = 5\nvalue = [3, 2]"] ;
216 -> 217 ;
218 [label="X[0] <= 0.029\ngini = 0.5\nsamples = 4\nvalue = [2, 2]"] ;
217 -> 218 ;
219 [label="gini = 0.444\nsamples = 3\nvalue = [2, 1]"] ;
218 -> 219 ;
220 [label="gini = 0.0\nsamples = 1\nvalue = [0, 1]"] ;
218 -> 220 ;
221 [label="gini = 0.0\nsamples = 1\nvalue = [1, 0]"] ;
217 -> 221 ;
222 [label="gini = 0.0\nsamples = 2\nvalue = [2, 0]"] ;
216 -> 222 ;
223 [label="gini = 0.0\nsamples = 19\nvalue = [19, 0]"] ;
199 -> 223 ;
224 [label="X[2] <= 0.389\ngini = 0.375\nsamples = 4\nvalue = [3, 1]"] ;
198 -> 224 ;
225 [label="gini = 0.0\nsamples = 2\nvalue = [2, 0]"] ;
224 -> 225 ;
226 [label="X[3] <= 0.5\ngini = 0.5\nsamples = 2\nvalue = [1, 1]"] ;
224 -> 226 ;
227 [label="gini = 0.0\nsamples = 1\nvalue = [0, 1]"] ;
226 -> 227 ;
228 [label="gini = 0.0\nsamples = 1\nvalue = [1, 0]"] ;
226 -> 228 ;
229 [label="X[2] <= 0.833\ngini = 0.309\nsamples = 115\nvalue = [93, 22]"] ;
197 -> 229 ;
230 [label="X[0] <= 0.027\ngini = 0.278\nsamples = 108\nvalue = [90, 18]"] ;
229 -> 230 ;
231 [label="X[1] <= 0.868\ngini = 0.48\nsamples = 10\nvalue = [6, 4]"] ;
230 -> 231 ;
232 [label="gini = 0.0\nsamples = 2\nvalue = [0, 2]"] ;
231 -> 232 ;
233 [label="X[2] <= 0.5\ngini = 0.375\nsamples = 8\nvalue = [6, 2]"] ;
231 -> 233 ;
234 [label="X[2] <= 0.389\ngini = 0.48\nsamples = 5\nvalue = [3, 2]"] ;
233 -> 234 ;
235 [label="gini = 0.0\nsamples = 1\nvalue = [1, 0]"] ;
234 -> 235 ;
236 [label="X[3] <= 0.5\ngini = 0.5\nsamples = 4\nvalue = [2, 2]"] ;
234 -> 236 ;
237 [label="gini = 0.0\nsamples = 1\nvalue = [0, 1]"] ;
236 -> 237 ;
238 [label="gini = 0.444\nsamples = 3\nvalue = [2, 1]"] ;
236 -> 238 ;
239 [label="gini = 0.0\nsamples = 3\nvalue = [3, 0]"] ;
233 -> 239 ;
240 [label="X[2] <= 0.278\ngini = 0.245\nsamples = 98\nvalue = [84, 14]"] ;
230 -> 240 ;
241 [label="X[2] <= 0.056\ngini = 0.36\nsamples = 34\nvalue = [26, 8]"] ;
240 -> 241 ;
242 [label="X[0] <= 0.028\ngini = 0.219\nsamples = 24\nvalue = [21, 3]"] ;
241 -> 242 ;
243 [label="X[1] <= 0.921\ngini = 0.42\nsamples = 10\nvalue = [7, 3]"] ;
242 -> 243 ;
244 [label="X[0] <= 0.027\ngini = 0.48\nsamples = 5\nvalue = [2, 3]"] ;
243 -> 244 ;
245 [label="gini = 0.0\nsamples = 2\nvalue = [0, 2]"] ;
244 -> 245 ;
246 [label="X[3] <= 0.5\ngini = 0.444\nsamples = 3\nvalue = [2, 1]"] ;
244 -> 246 ;
247 [label="gini = 0.0\nsamples = 2\nvalue = [2, 0]"] ;
246 -> 247 ;
248 [label="gini = 0.0\nsamples = 1\nvalue = [0, 1]"] ;
246 -> 248 ;
249 [label="gini = 0.0\nsamples = 5\nvalue = [5, 0]"] ;
243 -> 249 ;
250 [label="gini = 0.0\nsamples = 14\nvalue = [14, 0]"] ;
242 -> 250 ;
251 [label="X[2] <= 0.167\ngini = 0.5\nsamples = 10\nvalue = [5, 5]"] ;
241 -> 251 ;
252 [label="X[0] <= 0.029\ngini = 0.32\nsamples = 5\nvalue = [1, 4]"] ;
251 -> 252 ;
253 [label="gini = 0.0\nsamples = 3\nvalue = [0, 3]"] ;
252 -> 253 ;
254 [label="X[0] <= 0.03\ngini = 0.5\nsamples = 2\nvalue = [1, 1]"] ;
252 -> 254 ;
255 [label="gini = 0.0\nsamples = 1\nvalue = [1, 0]"] ;
254 -> 255 ;
256 [label="gini = 0.0\nsamples = 1\nvalue = [0, 1]"] ;
254 -> 256 ;
257 [label="X[3] <= 0.5\ngini = 0.32\nsamples = 5\nvalue = [4, 1]"] ;
251 -> 257 ;
258 [label="gini = 0.0\nsamples = 2\nvalue = [2, 0]"] ;
257 -> 258 ;
259 [label="X[0] <= 0.029\ngini = 0.444\nsamples = 3\nvalue = [2, 1]"] ;
257 -> 259 ;
260 [label="gini = 0.0\nsamples = 1\nvalue = [0, 1]"] ;
259 -> 260 ;
261 [label="gini = 0.0\nsamples = 2\nvalue = [2, 0]"] ;
259 -> 261 ;
262 [label="X[0] <= 0.03\ngini = 0.17\nsamples = 64\nvalue = [58, 6]"] ;
240 -> 262 ;
263 [label="X[2] <= 0.722\ngini = 0.115\nsamples = 49\nvalue = [46, 3]"] ;
262 -> 263 ;
264 [label="X[0] <= 0.029\ngini = 0.057\nsamples = 34\nvalue = [33, 1]"] ;
263 -> 264 ;
265 [label="gini = 0.0\nsamples = 29\nvalue = [29, 0]"] ;
264 -> 265 ;
266 [label="X[2] <= 0.5\ngini = 0.32\nsamples = 5\nvalue = [4, 1]"] ;
264 -> 266 ;
267 [label="X[3] <= 0.5\ngini = 0.5\nsamples = 2\nvalue = [1, 1]"] ;
266 -> 267 ;
268 [label="gini = 0.0\nsamples = 1\nvalue = [0, 1]"] ;
267 -> 268 ;
269 [label="gini = 0.0\nsamples = 1\nvalue = [1, 0]"] ;
267 -> 269 ;
270 [label="gini = 0.0\nsamples = 3\nvalue = [3, 0]"] ;
266 -> 270 ;
271 [label="X[3] <= 0.5\ngini = 0.231\nsamples = 15\nvalue = [13, 2]"] ;
263 -> 271 ;
272 [label="gini = 0.0\nsamples = 10\nvalue = [10, 0]"] ;
271 -> 272 ;
273 [label="X[0] <= 0.029\ngini = 0.48\nsamples = 5\nvalue = [3, 2]"] ;
271 -> 273 ;
274 [label="X[0] <= 0.028\ngini = 0.444\nsamples = 3\nvalue = [1, 2]"] ;
273 -> 274 ;
275 [label="gini = 0.0\nsamples = 1\nvalue = [0, 1]"] ;
274 -> 275 ;
276 [label="gini = 0.5\nsamples = 2\nvalue = [1, 1]"] ;
274 -> 276 ;
277 [label="gini = 0.0\nsamples = 2\nvalue = [2, 0]"] ;
273 -> 277 ;
278 [label="X[0] <= 0.031\ngini = 0.32\nsamples = 15\nvalue = [12, 3]"] ;
262 -> 278 ;
279 [label="X[0] <= 0.03\ngini = 0.49\nsamples = 7\nvalue = [4, 3]"] ;
278 -> 279 ;
280 [label="gini = 0.0\nsamples = 1\nvalue = [0, 1]"] ;
279 -> 280 ;
281 [label="X[0] <= 0.031\ngini = 0.444\nsamples = 6\nvalue = [4, 2]"] ;
279 -> 281 ;
282 [label="gini = 0.0\nsamples = 2\nvalue = [2, 0]"] ;
281 -> 282 ;
283 [label="X[2] <= 0.5\ngini = 0.5\nsamples = 4\nvalue = [2, 2]"] ;
281 -> 283 ;
284 [label="gini = 0.0\nsamples = 1\nvalue = [0, 1]"] ;
283 -> 284 ;
285 [label="gini = 0.444\nsamples = 3\nvalue = [2, 1]"] ;
283 -> 285 ;
286 [label="gini = 0.0\nsamples = 8\nvalue = [8, 0]"] ;
278 -> 286 ;
287 [label="X[1] <= 0.921\ngini = 0.49\nsamples = 7\nvalue = [3, 4]"] ;
229 -> 287 ;
288 [label="gini = 0.0\nsamples = 2\nvalue = [2, 0]"] ;
287 -> 288 ;
289 [label="X[0] <= 0.027\ngini = 0.32\nsamples = 5\nvalue = [1, 4]"] ;
287 -> 289 ;
290 [label="gini = 0.0\nsamples = 1\nvalue = [1, 0]"] ;
289 -> 290 ;
291 [label="gini = 0.0\nsamples = 4\nvalue = [0, 4]"] ;
289 -> 291 ;
292 [label="X[0] <= 0.035\ngini = 0.398\nsamples = 73\nvalue = [53, 20]"] ;
196 -> 292 ;
293 [label="X[3] <= 0.5\ngini = 0.495\nsamples = 42\nvalue = [23, 19]"] ;
292 -> 293 ;
294 [label="X[1] <= 0.921\ngini = 0.455\nsamples = 20\nvalue = [13, 7]"] ;
293 -> 294 ;
295 [label="X[0] <= 0.033\ngini = 0.278\nsamples = 12\nvalue = [10, 2]"] ;
294 -> 295 ;
296 [label="gini = 0.0\nsamples = 7\nvalue = [7, 0]"] ;
295 -> 296 ;
297 [label="X[0] <= 0.034\ngini = 0.48\nsamples = 5\nvalue = [3, 2]"] ;
295 -> 297 ;
298 [label="X[1] <= 0.763\ngini = 0.444\nsamples = 3\nvalue = [1, 2]"] ;
297 -> 298 ;
299 [label="gini = 0.0\nsamples = 2\nvalue = [0, 2]"] ;
298 -> 299 ;
300 [label="gini = 0.0\nsamples = 1\nvalue = [1, 0]"] ;
298 -> 300 ;
301 [label="gini = 0.0\nsamples = 2\nvalue = [2, 0]"] ;
297 -> 301 ;
302 [label="X[2] <= 0.833\ngini = 0.469\nsamples = 8\nvalue = [3, 5]"] ;
294 -> 302 ;
303 [label="X[2] <= 0.278\ngini = 0.278\nsamples = 6\nvalue = [1, 5]"] ;
302 -> 303 ;
304 [label="X[2] <= 0.111\ngini = 0.5\nsamples = 2\nvalue = [1, 1]"] ;
303 -> 304 ;
305 [label="gini = 0.0\nsamples = 1\nvalue = [0, 1]"] ;
304 -> 305 ;
306 [label="gini = 0.0\nsamples = 1\nvalue = [1, 0]"] ;
304 -> 306 ;
307 [label="gini = 0.0\nsamples = 4\nvalue = [0, 4]"] ;
303 -> 307 ;
308 [label="gini = 0.0\nsamples = 2\nvalue = [2, 0]"] ;
302 -> 308 ;
309 [label="X[0] <= 0.031\ngini = 0.496\nsamples = 22\nvalue = [10, 12]"] ;
293 -> 309 ;
310 [label="X[1] <= 0.553\ngini = 0.278\nsamples = 6\nvalue = [1, 5]"] ;
309 -> 310 ;
311 [label="gini = 0.0\nsamples = 1\nvalue = [1, 0]"] ;
310 -> 311 ;
312 [label="gini = 0.0\nsamples = 5\nvalue = [0, 5]"] ;
310 -> 312 ;
313 [label="X[1] <= 0.868\ngini = 0.492\nsamples = 16\nvalue = [9, 7]"] ;
309 -> 313 ;
314 [label="X[1] <= 0.711\ngini = 0.49\nsamples = 7\nvalue = [3, 4]"] ;
313 -> 314 ;
315 [label="X[0] <= 0.033\ngini = 0.48\nsamples = 5\nvalue = [3, 2]"] ;
314 -> 315 ;
316 [label="X[1] <= 0.658\ngini = 0.444\nsamples = 3\nvalue = [1, 2]"] ;
315 -> 316 ;
317 [label="gini = 0.0\nsamples = 2\nvalue = [0, 2]"] ;
316 -> 317 ;
318 [label="gini = 0.0\nsamples = 1\nvalue = [1, 0]"] ;
316 -> 318 ;
319 [label="gini = 0.0\nsamples = 2\nvalue = [2, 0]"] ;
315 -> 319 ;
320 [label="gini = 0.0\nsamples = 2\nvalue = [0, 2]"] ;
314 -> 320 ;
321 [label="X[0] <= 0.032\ngini = 0.444\nsamples = 9\nvalue = [6, 3]"] ;
313 -> 321 ;
322 [label="X[1] <= 0.921\ngini = 0.5\nsamples = 4\nvalue = [2, 2]"] ;
321 -> 322 ;
323 [label="gini = 0.0\nsamples = 2\nvalue = [0, 2]"] ;
322 -> 323 ;
324 [label="gini = 0.0\nsamples = 2\nvalue = [2, 0]"] ;
322 -> 324 ;
325 [label="X[1] <= 0.921\ngini = 0.32\nsamples = 5\nvalue = [4, 1]"] ;
321 -> 325 ;
326 [label="gini = 0.0\nsamples = 4\nvalue = [4, 0]"] ;
325 -> 326 ;
327 [label="gini = 0.0\nsamples = 1\nvalue = [0, 1]"] ;
325 -> 327 ;
328 [label="X[1] <= 0.605\ngini = 0.062\nsamples = 31\nvalue = [30, 1]"] ;
292 -> 328 ;
329 [label="X[0] <= 0.035\ngini = 0.32\nsamples = 5\nvalue = [4, 1]"] ;
328 -> 329 ;
330 [label="gini = 0.0\nsamples = 2\nvalue = [2, 0]"] ;
329 -> 330 ;
331 [label="X[2] <= 0.5\ngini = 0.444\nsamples = 3\nvalue = [2, 1]"] ;
329 -> 331 ;
332 [label="gini = 0.0\nsamples = 1\nvalue = [1, 0]"] ;
331 -> 332 ;
333 [label="X[3] <= 0.5\ngini = 0.5\nsamples = 2\nvalue = [1, 1]"] ;
331 -> 333 ;
334 [label="gini = 0.0\nsamples = 1\nvalue = [0, 1]"] ;
333 -> 334 ;
335 [label="gini = 0.0\nsamples = 1\nvalue = [1, 0]"] ;
333 -> 335 ;
336 [label="gini = 0.0\nsamples = 26\nvalue = [26, 0]"] ;
328 -> 336 ;
337 [label="X[0] <= 0.122\ngini = 0.476\nsamples = 5085\nvalue = [3100, 1985]"] ;
1 -> 337 ;
338 [label="X[0] <= 0.117\ngini = 0.444\nsamples = 2166\nvalue = [1444, 722]"] ;
337 -> 338 ;
339 [label="X[0] <= 0.071\ngini = 0.453\nsamples = 1941\nvalue = [1268, 673]"] ;
338 -> 339 ;
340 [label="X[1] <= 0.868\ngini = 0.435\nsamples = 1268\nvalue = [863, 405]"] ;
339 -> 340 ;
341 [label="X[0] <= 0.043\ngini = 0.415\nsamples = 893\nvalue = [631, 262]"] ;
340 -> 341 ;
342 [label="X[2] <= 0.722\ngini = 0.486\nsamples = 137\nvalue = [80, 57]"] ;
341 -> 342 ;
343 [label="X[2] <= 0.611\ngini = 0.495\nsamples = 111\nvalue = [61, 50]"] ;
342 -> 343 ;
344 [label="X[0] <= 0.042\ngini = 0.49\nsamples = 105\nvalue = [60, 45]"] ;
343 -> 344 ;
345 [label="X[0] <= 0.038\ngini = 0.486\nsamples = 101\nvalue = [59, 42]"] ;
344 -> 345 ;
346 [label="X[0] <= 0.038\ngini = 0.499\nsamples = 31\nvalue = [15, 16]"] ;
345 -> 346 ;
347 [label="X[3] <= 0.5\ngini = 0.48\nsamples = 25\nvalue = [15, 10]"] ;
346 -> 347 ;
348 [label="X[1] <= 0.447\ngini = 0.375\nsamples = 12\nvalue = [9, 3]"] ;
347 -> 348 ;
349 [label="gini = 0.0\nsamples = 4\nvalue = [4, 0]"] ;
348 -> 349 ;
350 [label="gini = 0.469\nsamples = 8\nvalue = [5, 3]"] ;
348 -> 350 ;
351 [label="X[1] <= 0.632\ngini = 0.497\nsamples = 13\nvalue = [6, 7]"] ;
347 -> 351 ;
352 [label="gini = 0.463\nsamples = 11\nvalue = [4, 7]"] ;
351 -> 352 ;
353 [label="gini = 0.0\nsamples = 2\nvalue = [2, 0]"] ;
351 -> 353 ;
354 [label="gini = 0.0\nsamples = 6\nvalue = [0, 6]"] ;
346 -> 354 ;
355 [label="X[0] <= 0.039\ngini = 0.467\nsamples = 70\nvalue = [44, 26]"] ;
345 -> 355 ;
356 [label="X[2] <= 0.056\ngini = 0.142\nsamples = 13\nvalue = [12, 1]"] ;
355 -> 356 ;
357 [label="X[0] <= 0.039\ngini = 0.444\nsamples = 3\nvalue = [2, 1]"] ;
356 -> 357 ;
358 [label="gini = 0.0\nsamples = 1\nvalue = [1, 0]"] ;
357 -> 358 ;
359 [label="gini = 0.5\nsamples = 2\nvalue = [1, 1]"] ;
357 -> 359 ;
360 [label="gini = 0.0\nsamples = 10\nvalue = [10, 0]"] ;
356 -> 360 ;
361 [label="X[0] <= 0.039\ngini = 0.492\nsamples = 57\nvalue = [32, 25]"] ;
355 -> 361 ;
362 [label="gini = 0.0\nsamples = 3\nvalue = [0, 3]"] ;
361 -> 362 ;
363 [label="X[0] <= 0.042\ngini = 0.483\nsamples = 54\nvalue = [32, 22]"] ;
361 -> 363 ;
364 [label="gini = 0.488\nsamples = 52\nvalue = [30, 22]"] ;
363 -> 364 ;
365 [label="gini = 0.0\nsamples = 2\nvalue = [2, 0]"] ;
363 -> 365 ;
366 [label="X[3] <= 0.5\ngini = 0.375\nsamples = 4\nvalue = [1, 3]"] ;
344 -> 366 ;
367 [label="gini = 0.0\nsamples = 3\nvalue = [0, 3]"] ;
366 -> 367 ;
368 [label="gini = 0.0\nsamples = 1\nvalue = [1, 0]"] ;
366 -> 368 ;
369 [label="X[1] <= 0.184\ngini = 0.278\nsamples = 6\nvalue = [1, 5]"] ;
343 -> 369 ;
370 [label="X[0] <= 0.041\ngini = 0.5\nsamples = 2\nvalue = [1, 1]"] ;
369 -> 370 ;
371 [label="gini = 0.0\nsamples = 1\nvalue = [1, 0]"] ;
370 -> 371 ;
372 [label="gini = 0.0\nsamples = 1\nvalue = [0, 1]"] ;
370 -> 372 ;
373 [label="gini = 0.0\nsamples = 4\nvalue = [0, 4]"] ;
369 -> 373 ;
374 [label="X[0] <= 0.04\ngini = 0.393\nsamples = 26\nvalue = [19, 7]"] ;
342 -> 374 ;
375 [label="X[2] <= 0.833\ngini = 0.245\nsamples = 14\nvalue = [12, 2]"] ;
374 -> 375 ;
376 [label="X[0] <= 0.039\ngini = 0.165\nsamples = 11\nvalue = [10, 1]"] ;
375 -> 376 ;
377 [label="gini = 0.0\nsamples = 7\nvalue = [7, 0]"] ;
376 -> 377 ;
378 [label="X[0] <= 0.039\ngini = 0.375\nsamples = 4\nvalue = [3, 1]"] ;
376 -> 378 ;
379 [label="gini = 0.0\nsamples = 1\nvalue = [0, 1]"] ;
378 -> 379 ;
380 [label="gini = 0.0\nsamples = 3\nvalue = [3, 0]"] ;
378 -> 380 ;
381 [label="X[0] <= 0.037\ngini = 0.444\nsamples = 3\nvalue = [2, 1]"] ;
375 -> 381 ;
382 [label="X[1] <= 0.342\ngini = 0.5\nsamples = 2\nvalue = [1, 1]"] ;
381 -> 382 ;
383 [label="gini = 0.0\nsamples = 1\nvalue = [1, 0]"] ;
382 -> 383 ;
384 [label="gini = 0.0\nsamples = 1\nvalue = [0, 1]"] ;
382 -> 384 ;
385 [label="gini = 0.0\nsamples = 1\nvalue = [1, 0]"] ;
381 -> 385 ;
386 [label="X[0] <= 0.04\ngini = 0.486\nsamples = 12\nvalue = [7, 5]"] ;
374 -> 386 ;
387 [label="gini = 0.0\nsamples = 3\nvalue = [0, 3]"] ;
386 -> 387 ;
388 [label="X[0] <= 0.041\ngini = 0.346\nsamples = 9\nvalue = [7, 2]"] ;
386 -> 388 ;
389 [label="gini = 0.0\nsamples = 3\nvalue = [3, 0]"] ;
388 -> 389 ;
390 [label="X[3] <= 0.5\ngini = 0.444\nsamples = 6\nvalue = [4, 2]"] ;
388 -> 390 ;
391 [label="gini = 0.0\nsamples = 3\nvalue = [3, 0]"] ;
390 -> 391 ;
392 [label="X[0] <= 0.042\ngini = 0.444\nsamples = 3\nvalue = [1, 2]"] ;
390 -> 392 ;
393 [label="gini = 0.0\nsamples = 2\nvalue = [0, 2]"] ;
392 -> 393 ;
394 [label="gini = 0.0\nsamples = 1\nvalue = [1, 0]"] ;
392 -> 394 ;
395 [label="X[2] <= 0.389\ngini = 0.395\nsamples = 756\nvalue = [551, 205]"] ;
341 -> 395 ;
396 [label="X[0] <= 0.065\ngini = 0.319\nsamples = 186\nvalue = [149, 37]"] ;
395 -> 396 ;
397 [label="X[0] <= 0.065\ngini = 0.389\nsamples = 102\nvalue = [75, 27]"] ;
396 -> 397 ;
398 [label="X[2] <= 0.278\ngini = 0.382\nsamples = 101\nvalue = [75, 26]"] ;
397 -> 398 ;
399 [label="X[0] <= 0.044\ngini = 0.398\nsamples = 95\nvalue = [69, 26]"] ;
398 -> 399 ;
400 [label="gini = 0.0\nsamples = 5\nvalue = [5, 0]"] ;
399 -> 400 ;
401 [label="X[0] <= 0.044\ngini = 0.411\nsamples = 90\nvalue = [64, 26]"] ;
399 -> 401 ;
402 [label="X[1] <= 0.632\ngini = 0.49\nsamples = 7\nvalue = [3, 4]"] ;
401 -> 402 ;
403 [label="gini = 0.48\nsamples = 5\nvalue = [3, 2]"] ;
402 -> 403 ;
404 [label="gini = 0.0\nsamples = 2\nvalue = [0, 2]"] ;
402 -> 404 ;
405 [label="X[0] <= 0.047\ngini = 0.39\nsamples = 83\nvalue = [61, 22]"] ;
401 -> 405 ;
406 [label="gini = 0.0\nsamples = 5\nvalue = [5, 0]"] ;
405 -> 406 ;
407 [label="gini = 0.405\nsamples = 78\nvalue = [56, 22]"] ;
405 -> 407 ;
408 [label="gini = 0.0\nsamples = 6\nvalue = [6, 0]"] ;
398 -> 408 ;
409 [label="gini = 0.0\nsamples = 1\nvalue = [0, 1]"] ;
397 -> 409 ;
410 [label="X[1] <= 0.132\ngini = 0.21\nsamples = 84\nvalue = [74, 10]"] ;
396 -> 410 ;
411 [label="X[0] <= 0.07\ngini = 0.5\nsamples = 6\nvalue = [3, 3]"] ;
410 -> 411 ;
412 [label="X[1] <= 0.026\ngini = 0.375\nsamples = 4\nvalue = [3, 1]"] ;
411 -> 412 ;
413 [label="gini = 0.5\nsamples = 2\nvalue = [1, 1]"] ;
412 -> 413 ;
414 [label="gini = 0.0\nsamples = 2\nvalue = [2, 0]"] ;
412 -> 414 ;
415 [label="gini = 0.0\nsamples = 2\nvalue = [0, 2]"] ;
411 -> 415 ;
416 [label="X[0] <= 0.07\ngini = 0.163\nsamples = 78\nvalue = [71, 7]"] ;
410 -> 416 ;
417 [label="X[1] <= 0.447\ngini = 0.054\nsamples = 36\nvalue = [35, 1]"] ;
416 -> 417 ;
418 [label="X[0] <= 0.069\ngini = 0.198\nsamples = 9\nvalue = [8, 1]"] ;
417 -> 418 ;
419 [label="X[0] <= 0.068\ngini = 0.375\nsamples = 4\nvalue = [3, 1]"] ;
418 -> 419 ;
420 [label="gini = 0.0\nsamples = 3\nvalue = [3, 0]"] ;
419 -> 420 ;
421 [label="gini = 0.0\nsamples = 1\nvalue = [0, 1]"] ;
419 -> 421 ;
422 [label="gini = 0.0\nsamples = 5\nvalue = [5, 0]"] ;
418 -> 422 ;
423 [label="gini = 0.0\nsamples = 27\nvalue = [27, 0]"] ;
417 -> 423 ;
424 [label="X[2] <= 0.167\ngini = 0.245\nsamples = 42\nvalue = [36, 6]"] ;
416 -> 424 ;
425 [label="X[1] <= 0.447\ngini = 0.202\nsamples = 35\nvalue = [31, 4]"] ;
424 -> 425 ;
426 [label="gini = 0.0\nsamples = 10\nvalue = [10, 0]"] ;
425 -> 426 ;
427 [label="X[1] <= 0.605\ngini = 0.269\nsamples = 25\nvalue = [21, 4]"] ;
425 -> 427 ;
428 [label="gini = 0.298\nsamples = 22\nvalue = [18, 4]"] ;
427 -> 428 ;
429 [label="gini = 0.0\nsamples = 3\nvalue = [3, 0]"] ;
427 -> 429 ;
430 [label="X[0] <= 0.071\ngini = 0.408\nsamples = 7\nvalue = [5, 2]"] ;
424 -> 430 ;
431 [label="X[2] <= 0.278\ngini = 0.278\nsamples = 6\nvalue = [5, 1]"] ;
430 -> 431 ;
432 [label="gini = 0.5\nsamples = 2\nvalue = [1, 1]"] ;
431 -> 432 ;
433 [label="gini = 0.0\nsamples = 4\nvalue = [4, 0]"] ;
431 -> 433 ;
434 [label="gini = 0.0\nsamples = 1\nvalue = [0, 1]"] ;
430 -> 434 ;
435 [label="X[1] <= 0.447\ngini = 0.416\nsamples = 570\nvalue = [402, 168]"] ;
395 -> 435 ;
436 [label="X[2] <= 0.5\ngini = 0.457\nsamples = 192\nvalue = [124, 68]"] ;
435 -> 436 ;
437 [label="X[0] <= 0.071\ngini = 0.49\nsamples = 79\nvalue = [45, 34]"] ;
436 -> 437 ;
438 [label="X[0] <= 0.07\ngini = 0.496\nsamples = 75\nvalue = [41, 34]"] ;
437 -> 438 ;
439 [label="X[0] <= 0.057\ngini = 0.482\nsamples = 69\nvalue = [41, 28]"] ;
438 -> 439 ;
440 [label="X[1] <= 0.395\ngini = 0.498\nsamples = 30\nvalue = [14, 16]"] ;
439 -> 440 ;
441 [label="gini = 0.426\nsamples = 13\nvalue = [9, 4]"] ;
440 -> 441 ;
442 [label="gini = 0.415\nsamples = 17\nvalue = [5, 12]"] ;
440 -> 442 ;
443 [label="X[1] <= 0.184\ngini = 0.426\nsamples = 39\nvalue = [27, 12]"] ;
439 -> 443 ;
444 [label="gini = 0.494\nsamples = 18\nvalue = [10, 8]"] ;
443 -> 444 ;
445 [label="gini = 0.308\nsamples = 21\nvalue = [17, 4]"] ;
443 -> 445 ;
446 [label="gini = 0.0\nsamples = 6\nvalue = [0, 6]"] ;
438 -> 446 ;
447 [label="gini = 0.0\nsamples = 4\nvalue = [4, 0]"] ;
437 -> 447 ;
448 [label="X[0] <= 0.069\ngini = 0.421\nsamples = 113\nvalue = [79, 34]"] ;
436 -> 448 ;
449 [label="X[0] <= 0.053\ngini = 0.476\nsamples = 41\nvalue = [25, 16]"] ;
448 -> 449 ;
450 [label="X[0] <= 0.048\ngini = 0.346\nsamples = 18\nvalue = [14, 4]"] ;
449 -> 450 ;
451 [label="X[0] <= 0.046\ngini = 0.444\nsamples = 12\nvalue = [8, 4]"] ;
450 -> 451 ;
452 [label="gini = 0.32\nsamples = 10\nvalue = [8, 2]"] ;
451 -> 452 ;
453 [label="gini = 0.0\nsamples = 2\nvalue = [0, 2]"] ;
451 -> 453 ;
454 [label="gini = 0.0\nsamples = 6\nvalue = [6, 0]"] ;
450 -> 454 ;
455 [label="X[2] <= 0.833\ngini = 0.499\nsamples = 23\nvalue = [11, 12]"] ;
449 -> 455 ;
456 [label="X[0] <= 0.069\ngini = 0.488\nsamples = 19\nvalue = [8, 11]"] ;
455 -> 456 ;
457 [label="gini = 0.469\nsamples = 16\nvalue = [6, 10]"] ;
456 -> 457 ;
458 [label="gini = 0.444\nsamples = 3\nvalue = [2, 1]"] ;
456 -> 458 ;
459 [label="X[2] <= 0.944\ngini = 0.375\nsamples = 4\nvalue = [3, 1]"] ;
455 -> 459 ;
460 [label="gini = 0.0\nsamples = 2\nvalue = [2, 0]"] ;
459 -> 460 ;
461 [label="gini = 0.5\nsamples = 2\nvalue = [1, 1]"] ;
459 -> 461 ;
462 [label="X[0] <= 0.071\ngini = 0.375\nsamples = 72\nvalue = [54, 18]"] ;
448 -> 462 ;
463 [label="X[2] <= 0.722\ngini = 0.356\nsamples = 69\nvalue = [53, 16]"] ;
462 -> 463 ;
464 [label="X[0] <= 0.071\ngini = 0.454\nsamples = 23\nvalue = [15, 8]"] ;
463 -> 464 ;
465 [label="gini = 0.434\nsamples = 22\nvalue = [15, 7]"] ;
464 -> 465 ;
466 [label="gini = 0.0\nsamples = 1\nvalue = [0, 1]"] ;
464 -> 466 ;
467 [label="X[3] <= 0.5\ngini = 0.287\nsamples = 46\nvalue = [38, 8]"] ;
463 -> 467 ;
468 [label="gini = 0.105\nsamples = 18\nvalue = [17, 1]"] ;
467 -> 468 ;
469 [label="gini = 0.375\nsamples = 28\nvalue = [21, 7]"] ;
467 -> 469 ;
470 [label="X[0] <= 0.071\ngini = 0.444\nsamples = 3\nvalue = [1, 2]"] ;
462 -> 470 ;
471 [label="gini = 0.0\nsamples = 2\nvalue = [0, 2]"] ;
470 -> 471 ;
472 [label="gini = 0.0\nsamples = 1\nvalue = [1, 0]"] ;
470 -> 472 ;
473 [label="X[0] <= 0.057\ngini = 0.389\nsamples = 378\nvalue = [278, 100]"] ;
435 -> 473 ;
474 [label="X[0] <= 0.055\ngini = 0.32\nsamples = 125\nvalue = [100, 25]"] ;
473 -> 474 ;
475 [label="X[0] <= 0.055\ngini = 0.343\nsamples = 109\nvalue = [85, 24]"] ;
474 -> 475 ;
476 [label="X[0] <= 0.044\ngini = 0.335\nsamples = 108\nvalue = [85, 23]"] ;
475 -> 476 ;
477 [label="X[1] <= 0.658\ngini = 0.165\nsamples = 22\nvalue = [20, 2]"] ;
476 -> 477 ;
478 [label="gini = 0.111\nsamples = 17\nvalue = [16, 1]"] ;
477 -> 478 ;
479 [label="gini = 0.32\nsamples = 5\nvalue = [4, 1]"] ;
477 -> 479 ;
480 [label="X[0] <= 0.045\ngini = 0.369\nsamples = 86\nvalue = [65, 21]"] ;
476 -> 480 ;
481 [label="gini = 0.469\nsamples = 8\nvalue = [3, 5]"] ;
480 -> 481 ;
482 [label="gini = 0.326\nsamples = 78\nvalue = [62, 16]"] ;
480 -> 482 ;
483 [label="gini = 0.0\nsamples = 1\nvalue = [0, 1]"] ;
475 -> 483 ;
484 [label="X[1] <= 0.658\ngini = 0.117\nsamples = 16\nvalue = [15, 1]"] ;
474 -> 484 ;
485 [label="gini = 0.0\nsamples = 11\nvalue = [11, 0]"] ;
484 -> 485 ;
486 [label="X[0] <= 0.057\ngini = 0.32\nsamples = 5\nvalue = [4, 1]"] ;
484 -> 486 ;
487 [label="gini = 0.0\nsamples = 2\nvalue = [2, 0]"] ;
486 -> 487 ;
488 [label="X[0] <= 0.057\ngini = 0.444\nsamples = 3\nvalue = [2, 1]"] ;
486 -> 488 ;
489 [label="gini = 0.0\nsamples = 1\nvalue = [0, 1]"] ;
488 -> 489 ;
490 [label="gini = 0.0\nsamples = 2\nvalue = [2, 0]"] ;
488 -> 490 ;
491 [label="X[0] <= 0.061\ngini = 0.417\nsamples = 253\nvalue = [178, 75]"] ;
473 -> 491 ;
492 [label="X[3] <= 0.5\ngini = 0.49\nsamples = 14\nvalue = [6, 8]"] ;
491 -> 492 ;
493 [label="X[1] <= 0.553\ngini = 0.375\nsamples = 4\nvalue = [3, 1]"] ;
492 -> 493 ;
494 [label="gini = 0.0\nsamples = 2\nvalue = [2, 0]"] ;
493 -> 494 ;
495 [label="X[0] <= 0.059\ngini = 0.5\nsamples = 2\nvalue = [1, 1]"] ;
493 -> 495 ;
496 [label="gini = 0.0\nsamples = 1\nvalue = [0, 1]"] ;
495 -> 496 ;
497 [label="gini = 0.0\nsamples = 1\nvalue = [1, 0]"] ;
495 -> 497 ;
498 [label="X[0] <= 0.058\ngini = 0.42\nsamples = 10\nvalue = [3, 7]"] ;
492 -> 498 ;
499 [label="X[0] <= 0.058\ngini = 0.5\nsamples = 6\nvalue = [3, 3]"] ;
498 -> 499 ;
500 [label="gini = 0.0\nsamples = 2\nvalue = [0, 2]"] ;
499 -> 500 ;
501 [label="gini = 0.375\nsamples = 4\nvalue = [3, 1]"] ;
499 -> 501 ;
502 [label="gini = 0.0\nsamples = 4\nvalue = [0, 4]"] ;
498 -> 502 ;
503 [label="X[0] <= 0.07\ngini = 0.403\nsamples = 239\nvalue = [172, 67]"] ;
491 -> 503 ;
504 [label="X[2] <= 0.611\ngini = 0.337\nsamples = 84\nvalue = [66, 18]"] ;
503 -> 504 ;
505 [label="X[0] <= 0.067\ngini = 0.426\nsamples = 39\nvalue = [27, 12]"] ;
504 -> 505 ;
506 [label="gini = 0.488\nsamples = 26\nvalue = [15, 11]"] ;
505 -> 506 ;
507 [label="gini = 0.142\nsamples = 13\nvalue = [12, 1]"] ;
505 -> 507 ;
508 [label="X[1] <= 0.5\ngini = 0.231\nsamples = 45\nvalue = [39, 6]"] ;
504 -> 508 ;
509 [label="gini = 0.08\nsamples = 24\nvalue = [23, 1]"] ;
508 -> 509 ;
510 [label="gini = 0.363\nsamples = 21\nvalue = [16, 5]"] ;
508 -> 510 ;
511 [label="X[0] <= 0.07\ngini = 0.432\nsamples = 155\nvalue = [106, 49]"] ;
503 -> 511 ;
512 [label="X[0] <= 0.07\ngini = 0.451\nsamples = 122\nvalue = [80, 42]"] ;
511 -> 512 ;
513 [label="gini = 0.413\nsamples = 55\nvalue = [39, 16]"] ;
512 -> 513 ;
514 [label="gini = 0.475\nsamples = 67\nvalue = [41, 26]"] ;
512 -> 514 ;
515 [label="X[2] <= 0.611\ngini = 0.334\nsamples = 33\nvalue = [26, 7]"] ;
511 -> 515 ;
516 [label="gini = 0.188\nsamples = 19\nvalue = [17, 2]"] ;
515 -> 516 ;
517 [label="gini = 0.459\nsamples = 14\nvalue = [9, 5]"] ;
515 -> 517 ;
518 [label="X[0] <= 0.067\ngini = 0.472\nsamples = 375\nvalue = [232, 143]"] ;
340 -> 518 ;
519 [label="X[3] <= 0.5\ngini = 0.49\nsamples = 216\nvalue = [123, 93]"] ;
518 -> 519 ;
520 [label="X[2] <= 0.833\ngini = 0.458\nsamples = 107\nvalue = [69, 38]"] ;
519 -> 520 ;
521 [label="X[0] <= 0.066\ngini = 0.437\nsamples = 96\nvalue = [65, 31]"] ;
520 -> 521 ;
522 [label="X[0] <= 0.056\ngini = 0.427\nsamples = 94\nvalue = [65, 29]"] ;
521 -> 522 ;
523 [label="X[0] <= 0.053\ngini = 0.459\nsamples = 70\nvalue = [45, 25]"] ;
522 -> 523 ;
524 [label="X[0] <= 0.036\ngini = 0.417\nsamples = 64\nvalue = [45, 19]"] ;
523 -> 524 ;
525 [label="gini = 0.0\nsamples = 1\nvalue = [0, 1]"] ;
524 -> 525 ;
526 [label="X[0] <= 0.044\ngini = 0.408\nsamples = 63\nvalue = [45, 18]"] ;
524 -> 526 ;
527 [label="gini = 0.32\nsamples = 35\nvalue = [28, 7]"] ;
526 -> 527 ;
528 [label="gini = 0.477\nsamples = 28\nvalue = [17, 11]"] ;
526 -> 528 ;
529 [label="gini = 0.0\nsamples = 6\nvalue = [0, 6]"] ;
523 -> 529 ;
530 [label="X[2] <= 0.278\ngini = 0.278\nsamples = 24\nvalue = [20, 4]"] ;
522 -> 530 ;
531 [label="gini = 0.0\nsamples = 12\nvalue = [12, 0]"] ;
530 -> 531 ;
532 [label="X[1] <= 0.921\ngini = 0.444\nsamples = 12\nvalue = [8, 4]"] ;
530 -> 532 ;
533 [label="X[0] <= 0.062\ngini = 0.48\nsamples = 5\nvalue = [2, 3]"] ;
532 -> 533 ;
534 [label="gini = 0.375\nsamples = 4\nvalue = [1, 3]"] ;
533 -> 534 ;
535 [label="gini = 0.0\nsamples = 1\nvalue = [1, 0]"] ;
533 -> 535 ;
536 [label="X[2] <= 0.5\ngini = 0.245\nsamples = 7\nvalue = [6, 1]"] ;
532 -> 536 ;
537 [label="gini = 0.5\nsamples = 2\nvalue = [1, 1]"] ;
536 -> 537 ;
538 [label="gini = 0.0\nsamples = 5\nvalue = [5, 0]"] ;
536 -> 538 ;
539 [label="gini = 0.0\nsamples = 2\nvalue = [0, 2]"] ;
521 -> 539 ;
540 [label="X[0] <= 0.039\ngini = 0.463\nsamples = 11\nvalue = [4, 7]"] ;
520 -> 540 ;
541 [label="gini = 0.0\nsamples = 2\nvalue = [2, 0]"] ;
540 -> 541 ;
542 [label="X[0] <= 0.048\ngini = 0.346\nsamples = 9\nvalue = [2, 7]"] ;
540 -> 542 ;
543 [label="gini = 0.0\nsamples = 4\nvalue = [0, 4]"] ;
542 -> 543 ;
544 [label="X[0] <= 0.049\ngini = 0.48\nsamples = 5\nvalue = [2, 3]"] ;
542 -> 544 ;
545 [label="gini = 0.0\nsamples = 1\nvalue = [1, 0]"] ;
544 -> 545 ;
546 [label="X[0] <= 0.055\ngini = 0.375\nsamples = 4\nvalue = [1, 3]"] ;
544 -> 546 ;
547 [label="gini = 0.0\nsamples = 2\nvalue = [0, 2]"] ;
546 -> 547 ;
548 [label="X[1] <= 0.921\ngini = 0.5\nsamples = 2\nvalue = [1, 1]"] ;
546 -> 548 ;
549 [label="gini = 0.0\nsamples = 1\nvalue = [0, 1]"] ;
548 -> 549 ;
550 [label="gini = 0.0\nsamples = 1\nvalue = [1, 0]"] ;
548 -> 550 ;
551 [label="X[0] <= 0.064\ngini = 0.5\nsamples = 109\nvalue = [54, 55]"] ;
519 -> 551 ;
552 [label="X[0] <= 0.037\ngini = 0.499\nsamples = 100\nvalue = [52, 48]"] ;
551 -> 552 ;
553 [label="X[2] <= 0.278\ngini = 0.444\nsamples = 9\nvalue = [3, 6]"] ;
552 -> 553 ;
554 [label="X[0] <= 0.036\ngini = 0.5\nsamples = 6\nvalue = [3, 3]"] ;
553 -> 554 ;
555 [label="gini = 0.0\nsamples = 1\nvalue = [1, 0]"] ;
554 -> 555 ;
556 [label="X[1] <= 0.921\ngini = 0.48\nsamples = 5\nvalue = [2, 3]"] ;
554 -> 556 ;
557 [label="X[0] <= 0.036\ngini = 0.444\nsamples = 3\nvalue = [2, 1]"] ;
556 -> 557 ;
558 [label="gini = 0.0\nsamples = 1\nvalue = [0, 1]"] ;
557 -> 558 ;
559 [label="gini = 0.0\nsamples = 2\nvalue = [2, 0]"] ;
557 -> 559 ;
560 [label="gini = 0.0\nsamples = 2\nvalue = [0, 2]"] ;
556 -> 560 ;
561 [label="gini = 0.0\nsamples = 3\nvalue = [0, 3]"] ;
553 -> 561 ;
562 [label="X[0] <= 0.045\ngini = 0.497\nsamples = 91\nvalue = [49, 42]"] ;
552 -> 562 ;
563 [label="X[2] <= 0.222\ngini = 0.458\nsamples = 31\nvalue = [20, 11]"] ;
562 -> 563 ;
564 [label="X[0] <= 0.038\ngini = 0.278\nsamples = 12\nvalue = [10, 2]"] ;
563 -> 564 ;
565 [label="gini = 0.0\nsamples = 1\nvalue = [0, 1]"] ;
564 -> 565 ;
566 [label="X[0] <= 0.041\ngini = 0.165\nsamples = 11\nvalue = [10, 1]"] ;
564 -> 566 ;
567 [label="gini = 0.32\nsamples = 5\nvalue = [4, 1]"] ;
566 -> 567 ;
568 [label="gini = 0.0\nsamples = 6\nvalue = [6, 0]"] ;
566 -> 568 ;
569 [label="X[2] <= 0.833\ngini = 0.499\nsamples = 19\nvalue = [10, 9]"] ;
563 -> 569 ;
570 [label="X[2] <= 0.389\ngini = 0.492\nsamples = 16\nvalue = [7, 9]"] ;
569 -> 570 ;
571 [label="gini = 0.0\nsamples = 2\nvalue = [0, 2]"] ;
570 -> 571 ;
572 [label="gini = 0.5\nsamples = 14\nvalue = [7, 7]"] ;
570 -> 572 ;
573 [label="gini = 0.0\nsamples = 3\nvalue = [3, 0]"] ;
569 -> 573 ;
574 [label="X[0] <= 0.049\ngini = 0.499\nsamples = 60\nvalue = [29, 31]"] ;
562 -> 574 ;
575 [label="X[2] <= 0.222\ngini = 0.245\nsamples = 7\nvalue = [1, 6]"] ;
574 -> 575 ;
576 [label="X[0] <= 0.045\ngini = 0.5\nsamples = 2\nvalue = [1, 1]"] ;
575 -> 576 ;
577 [label="gini = 0.0\nsamples = 1\nvalue = [1, 0]"] ;
576 -> 577 ;
578 [label="gini = 0.0\nsamples = 1\nvalue = [0, 1]"] ;
576 -> 578 ;
579 [label="gini = 0.0\nsamples = 5\nvalue = [0, 5]"] ;
575 -> 579 ;
580 [label="X[0] <= 0.054\ngini = 0.498\nsamples = 53\nvalue = [28, 25]"] ;
574 -> 580 ;
581 [label="X[2] <= 0.278\ngini = 0.444\nsamples = 21\nvalue = [14, 7]"] ;
580 -> 581 ;
582 [label="gini = 0.49\nsamples = 7\nvalue = [3, 4]"] ;
581 -> 582 ;
583 [label="gini = 0.337\nsamples = 14\nvalue = [11, 3]"] ;
581 -> 583 ;
584 [label="X[0] <= 0.058\ngini = 0.492\nsamples = 32\nvalue = [14, 18]"] ;
580 -> 584 ;
585 [label="gini = 0.18\nsamples = 10\nvalue = [1, 9]"] ;
584 -> 585 ;
586 [label="gini = 0.483\nsamples = 22\nvalue = [13, 9]"] ;
584 -> 586 ;
587 [label="X[0] <= 0.065\ngini = 0.346\nsamples = 9\nvalue = [2, 7]"] ;
551 -> 587 ;
588 [label="gini = 0.0\nsamples = 6\nvalue = [0, 6]"] ;
587 -> 588 ;
589 [label="X[0] <= 0.067\ngini = 0.444\nsamples = 3\nvalue = [2, 1]"] ;
587 -> 589 ;
590 [label="gini = 0.0\nsamples = 2\nvalue = [2, 0]"] ;
589 -> 590 ;
591 [label="gini = 0.0\nsamples = 1\nvalue = [0, 1]"] ;
589 -> 591 ;
592 [label="X[0] <= 0.069\ngini = 0.431\nsamples = 159\nvalue = [109, 50]"] ;
518 -> 592 ;
593 [label="X[2] <= 0.278\ngini = 0.18\nsamples = 20\nvalue = [18, 2]"] ;
592 -> 593 ;
594 [label="X[0] <= 0.068\ngini = 0.346\nsamples = 9\nvalue = [7, 2]"] ;
593 -> 594 ;
595 [label="gini = 0.0\nsamples = 1\nvalue = [0, 1]"] ;
594 -> 595 ;
596 [label="X[2] <= 0.056\ngini = 0.219\nsamples = 8\nvalue = [7, 1]"] ;
594 -> 596 ;
597 [label="gini = 0.0\nsamples = 6\nvalue = [6, 0]"] ;
596 -> 597 ;
598 [label="X[1] <= 0.921\ngini = 0.5\nsamples = 2\nvalue = [1, 1]"] ;
596 -> 598 ;
599 [label="gini = 0.0\nsamples = 1\nvalue = [0, 1]"] ;
598 -> 599 ;
600 [label="gini = 0.0\nsamples = 1\nvalue = [1, 0]"] ;
598 -> 600 ;
601 [label="gini = 0.0\nsamples = 11\nvalue = [11, 0]"] ;
593 -> 601 ;
602 [label="X[2] <= 0.833\ngini = 0.452\nsamples = 139\nvalue = [91, 48]"] ;
592 -> 602 ;
603 [label="X[2] <= 0.389\ngini = 0.462\nsamples = 130\nvalue = [83, 47]"] ;
602 -> 603 ;
604 [label="X[0] <= 0.07\ngini = 0.381\nsamples = 39\nvalue = [29, 10]"] ;
603 -> 604 ;
605 [label="X[2] <= 0.278\ngini = 0.444\nsamples = 18\nvalue = [12, 6]"] ;
604 -> 605 ;
606 [label="X[1] <= 0.974\ngini = 0.48\nsamples = 15\nvalue = [9, 6]"] ;
605 -> 606 ;
607 [label="X[1] <= 0.921\ngini = 0.49\nsamples = 14\nvalue = [8, 6]"] ;
606 -> 607 ;
608 [label="gini = 0.5\nsamples = 8\nvalue = [4, 4]"] ;
607 -> 608 ;
609 [label="gini = 0.444\nsamples = 6\nvalue = [4, 2]"] ;
607 -> 609 ;
610 [label="gini = 0.0\nsamples = 1\nvalue = [1, 0]"] ;
606 -> 610 ;
611 [label="gini = 0.0\nsamples = 3\nvalue = [3, 0]"] ;
605 -> 611 ;
612 [label="X[0] <= 0.07\ngini = 0.308\nsamples = 21\nvalue = [17, 4]"] ;
604 -> 612 ;
613 [label="gini = 0.0\nsamples = 3\nvalue = [3, 0]"] ;
612 -> 613 ;
614 [label="X[1] <= 0.921\ngini = 0.346\nsamples = 18\nvalue = [14, 4]"] ;
612 -> 614 ;
615 [label="X[0] <= 0.071\ngini = 0.298\nsamples = 11\nvalue = [9, 2]"] ;
614 -> 615 ;
616 [label="gini = 0.48\nsamples = 5\nvalue = [3, 2]"] ;
615 -> 616 ;
617 [label="gini = 0.0\nsamples = 6\nvalue = [6, 0]"] ;
615 -> 617 ;
618 [label="X[0] <= 0.071\ngini = 0.408\nsamples = 7\nvalue = [5, 2]"] ;
614 -> 618 ;
619 [label="gini = 0.0\nsamples = 5\nvalue = [5, 0]"] ;
618 -> 619 ;
620 [label="gini = 0.0\nsamples = 2\nvalue = [0, 2]"] ;
618 -> 620 ;
621 [label="X[0] <= 0.071\ngini = 0.483\nsamples = 91\nvalue = [54, 37]"] ;
603 -> 621 ;
622 [label="X[3] <= 0.5\ngini = 0.488\nsamples = 85\nvalue = [49, 36]"] ;
621 -> 622 ;
623 [label="X[0] <= 0.07\ngini = 0.5\nsamples = 43\nvalue = [22, 21]"] ;
622 -> 623 ;
624 [label="X[2] <= 0.722\ngini = 0.455\nsamples = 20\nvalue = [13, 7]"] ;
623 -> 624 ;
625 [label="gini = 0.0\nsamples = 5\nvalue = [5, 0]"] ;
624 -> 625 ;
626 [label="gini = 0.498\nsamples = 15\nvalue = [8, 7]"] ;
624 -> 626 ;
627 [label="X[1] <= 0.921\ngini = 0.476\nsamples = 23\nvalue = [9, 14]"] ;
623 -> 627 ;
628 [label="gini = 0.32\nsamples = 10\nvalue = [2, 8]"] ;
627 -> 628 ;
629 [label="gini = 0.497\nsamples = 13\nvalue = [7, 6]"] ;
627 -> 629 ;
630 [label="X[2] <= 0.722\ngini = 0.459\nsamples = 42\nvalue = [27, 15]"] ;
622 -> 630 ;
631 [label="X[0] <= 0.07\ngini = 0.497\nsamples = 13\nvalue = [6, 7]"] ;
630 -> 631 ;
632 [label="gini = 0.408\nsamples = 7\nvalue = [5, 2]"] ;
631 -> 632 ;
633 [label="gini = 0.278\nsamples = 6\nvalue = [1, 5]"] ;
631 -> 633 ;
634 [label="X[0] <= 0.07\ngini = 0.4\nsamples = 29\nvalue = [21, 8]"] ;
630 -> 634 ;
635 [label="gini = 0.0\nsamples = 3\nvalue = [3, 0]"] ;
634 -> 635 ;
636 [label="gini = 0.426\nsamples = 26\nvalue = [18, 8]"] ;
634 -> 636 ;
637 [label="X[3] <= 0.5\ngini = 0.278\nsamples = 6\nvalue = [5, 1]"] ;
621 -> 637 ;
638 [label="gini = 0.0\nsamples = 4\nvalue = [4, 0]"] ;
637 -> 638 ;
639 [label="gini = 0.5\nsamples = 2\nvalue = [1, 1]"] ;
637 -> 639 ;
640 [label="X[0] <= 0.07\ngini = 0.198\nsamples = 9\nvalue = [8, 1]"] ;
602 -> 640 ;
641 [label="gini = 0.0\nsamples = 7\nvalue = [7, 0]"] ;
640 -> 641 ;
642 [label="X[1] <= 0.921\ngini = 0.5\nsamples = 2\nvalue = [1, 1]"] ;
640 -> 642 ;
643 [label="gini = 0.0\nsamples = 1\nvalue = [0, 1]"] ;
642 -> 643 ;
644 [label="gini = 0.0\nsamples = 1\nvalue = [1, 0]"] ;
642 -> 644 ;
645 [label="X[2] <= 0.833\ngini = 0.479\nsamples = 673\nvalue = [405, 268]"] ;
339 -> 645 ;
646 [label="X[2] <= 0.611\ngini = 0.484\nsamples = 627\nvalue = [369, 258]"] ;
645 -> 646 ;
647 [label="X[2] <= 0.167\ngini = 0.471\nsamples = 511\nvalue = [317, 194]"] ;
646 -> 647 ;
648 [label="X[0] <= 0.072\ngini = 0.488\nsamples = 300\nvalue = [173, 127]"] ;
647 -> 648 ;
649 [label="X[1] <= 0.921\ngini = 0.255\nsamples = 20\nvalue = [17, 3]"] ;
648 -> 649 ;
650 [label="X[0] <= 0.072\ngini = 0.124\nsamples = 15\nvalue = [14, 1]"] ;
649 -> 650 ;
651 [label="gini = 0.0\nsamples = 9\nvalue = [9, 0]"] ;
650 -> 651 ;
652 [label="X[1] <= 0.737\ngini = 0.278\nsamples = 6\nvalue = [5, 1]"] ;
650 -> 652 ;
653 [label="X[1] <= 0.553\ngini = 0.444\nsamples = 3\nvalue = [2, 1]"] ;
652 -> 653 ;
654 [label="gini = 0.0\nsamples = 2\nvalue = [2, 0]"] ;
653 -> 654 ;
655 [label="gini = 0.0\nsamples = 1\nvalue = [0, 1]"] ;
653 -> 655 ;
656 [label="gini = 0.0\nsamples = 3\nvalue = [3, 0]"] ;
652 -> 656 ;
657 [label="X[3] <= 0.5\ngini = 0.48\nsamples = 5\nvalue = [3, 2]"] ;
649 -> 657 ;
658 [label="X[0] <= 0.072\ngini = 0.444\nsamples = 3\nvalue = [1, 2]"] ;
657 -> 658 ;
659 [label="gini = 0.0\nsamples = 1\nvalue = [0, 1]"] ;
658 -> 659 ;
660 [label="gini = 0.5\nsamples = 2\nvalue = [1, 1]"] ;
658 -> 660 ;
661 [label="gini = 0.0\nsamples = 2\nvalue = [2, 0]"] ;
657 -> 661 ;
662 [label="X[0] <= 0.073\ngini = 0.493\nsamples = 280\nvalue = [156, 124]"] ;
648 -> 662 ;
663 [label="X[3] <= 0.5\ngini = 0.42\nsamples = 10\nvalue = [3, 7]"] ;
662 -> 663 ;
664 [label="X[1] <= 0.684\ngini = 0.48\nsamples = 5\nvalue = [3, 2]"] ;
663 -> 664 ;
665 [label="X[0] <= 0.072\ngini = 0.444\nsamples = 3\nvalue = [1, 2]"] ;
664 -> 665 ;
666 [label="gini = 0.0\nsamples = 1\nvalue = [1, 0]"] ;
665 -> 666 ;
667 [label="gini = 0.0\nsamples = 2\nvalue = [0, 2]"] ;
665 -> 667 ;
668 [label="gini = 0.0\nsamples = 2\nvalue = [2, 0]"] ;
664 -> 668 ;
669 [label="gini = 0.0\nsamples = 5\nvalue = [0, 5]"] ;
663 -> 669 ;
670 [label="X[0] <= 0.074\ngini = 0.491\nsamples = 270\nvalue = [153, 117]"] ;
662 -> 670 ;
671 [label="X[1] <= 0.605\ngini = 0.346\nsamples = 18\nvalue = [14, 4]"] ;
670 -> 671 ;
672 [label="X[0] <= 0.073\ngini = 0.153\nsamples = 12\nvalue = [11, 1]"] ;
671 -> 672 ;
673 [label="X[0] <= 0.073\ngini = 0.32\nsamples = 5\nvalue = [4, 1]"] ;
672 -> 673 ;
674 [label="gini = 0.0\nsamples = 4\nvalue = [4, 0]"] ;
673 -> 674 ;
675 [label="gini = 0.0\nsamples = 1\nvalue = [0, 1]"] ;
673 -> 675 ;
676 [label="gini = 0.0\nsamples = 7\nvalue = [7, 0]"] ;
672 -> 676 ;
677 [label="X[0] <= 0.073\ngini = 0.5\nsamples = 6\nvalue = [3, 3]"] ;
671 -> 677 ;
678 [label="gini = 0.0\nsamples = 2\nvalue = [0, 2]"] ;
677 -> 678 ;
679 [label="X[0] <= 0.073\ngini = 0.375\nsamples = 4\nvalue = [3, 1]"] ;
677 -> 679 ;
680 [label="gini = 0.0\nsamples = 2\nvalue = [2, 0]"] ;
679 -> 680 ;
681 [label="gini = 0.5\nsamples = 2\nvalue = [1, 1]"] ;
679 -> 681 ;
682 [label="X[0] <= 0.077\ngini = 0.495\nsamples = 252\nvalue = [139, 113]"] ;
670 -> 682 ;
683 [label="X[2] <= 0.056\ngini = 0.495\nsamples = 51\nvalue = [23, 28]"] ;
682 -> 683 ;
684 [label="X[0] <= 0.075\ngini = 0.5\nsamples = 47\nvalue = [23, 24]"] ;
683 -> 684 ;
685 [label="gini = 0.471\nsamples = 29\nvalue = [18, 11]"] ;
684 -> 685 ;
686 [label="gini = 0.401\nsamples = 18\nvalue = [5, 13]"] ;
684 -> 686 ;
687 [label="gini = 0.0\nsamples = 4\nvalue = [0, 4]"] ;
683 -> 687 ;
688 [label="X[0] <= 0.078\ngini = 0.488\nsamples = 201\nvalue = [116, 85]"] ;
682 -> 688 ;
689 [label="X[1] <= 0.5\ngini = 0.18\nsamples = 10\nvalue = [9, 1]"] ;
688 -> 689 ;
690 [label="gini = 0.32\nsamples = 5\nvalue = [4, 1]"] ;
689 -> 690 ;
691 [label="gini = 0.0\nsamples = 5\nvalue = [5, 0]"] ;
689 -> 691 ;
692 [label="X[1] <= 0.132\ngini = 0.493\nsamples = 191\nvalue = [107, 84]"] ;
688 -> 692 ;
693 [label="gini = 0.32\nsamples = 5\nvalue = [1, 4]"] ;
692 -> 693 ;
694 [label="gini = 0.49\nsamples = 186\nvalue = [106, 80]"] ;
692 -> 694 ;
695 [label="X[0] <= 0.084\ngini = 0.433\nsamples = 211\nvalue = [144, 67]"] ;
647 -> 695 ;
696 [label="X[0] <= 0.078\ngini = 0.474\nsamples = 109\nvalue = [67, 42]"] ;
695 -> 696 ;
697 [label="X[0] <= 0.076\ngini = 0.447\nsamples = 83\nvalue = [55, 28]"] ;
696 -> 697 ;
698 [label="X[2] <= 0.278\ngini = 0.472\nsamples = 68\nvalue = [42, 26]"] ;
697 -> 698 ;
699 [label="gini = 0.0\nsamples = 3\nvalue = [3, 0]"] ;
698 -> 699 ;
700 [label="X[0] <= 0.072\ngini = 0.48\nsamples = 65\nvalue = [39, 26]"] ;
698 -> 700 ;
701 [label="X[2] <= 0.5\ngini = 0.49\nsamples = 14\nvalue = [6, 8]"] ;
700 -> 701 ;
702 [label="gini = 0.346\nsamples = 9\nvalue = [2, 7]"] ;
701 -> 702 ;
703 [label="gini = 0.32\nsamples = 5\nvalue = [4, 1]"] ;
701 -> 703 ;
704 [label="X[1] <= 0.868\ngini = 0.457\nsamples = 51\nvalue = [33, 18]"] ;
700 -> 704 ;
705 [label="gini = 0.49\nsamples = 35\nvalue = [20, 15]"] ;
704 -> 705 ;
706 [label="gini = 0.305\nsamples = 16\nvalue = [13, 3]"] ;
704 -> 706 ;
707 [label="X[2] <= 0.389\ngini = 0.231\nsamples = 15\nvalue = [13, 2]"] ;
697 -> 707 ;
708 [label="X[0] <= 0.076\ngini = 0.5\nsamples = 2\nvalue = [1, 1]"] ;
707 -> 708 ;
709 [label="gini = 0.0\nsamples = 1\nvalue = [1, 0]"] ;
708 -> 709 ;
710 [label="gini = 0.0\nsamples = 1\nvalue = [0, 1]"] ;
708 -> 710 ;
711 [label="X[0] <= 0.077\ngini = 0.142\nsamples = 13\nvalue = [12, 1]"] ;
707 -> 711 ;
712 [label="gini = 0.0\nsamples = 10\nvalue = [10, 0]"] ;
711 -> 712 ;
713 [label="X[0] <= 0.078\ngini = 0.444\nsamples = 3\nvalue = [2, 1]"] ;
711 -> 713 ;
714 [label="gini = 0.0\nsamples = 1\nvalue = [0, 1]"] ;
713 -> 714 ;
715 [label="gini = 0.0\nsamples = 2\nvalue = [2, 0]"] ;
713 -> 715 ;
716 [label="X[1] <= 0.921\ngini = 0.497\nsamples = 26\nvalue = [12, 14]"] ;
696 -> 716 ;
717 [label="X[0] <= 0.079\ngini = 0.5\nsamples = 24\nvalue = [12, 12]"] ;
716 -> 717 ;
718 [label="X[1] <= 0.737\ngini = 0.444\nsamples = 9\nvalue = [3, 6]"] ;
717 -> 718 ;
719 [label="X[0] <= 0.078\ngini = 0.375\nsamples = 8\nvalue = [2, 6]"] ;
718 -> 719 ;
720 [label="gini = 0.0\nsamples = 3\nvalue = [0, 3]"] ;
719 -> 720 ;
721 [label="gini = 0.48\nsamples = 5\nvalue = [2, 3]"] ;
719 -> 721 ;
722 [label="gini = 0.0\nsamples = 1\nvalue = [1, 0]"] ;
718 -> 722 ;
723 [label="X[0] <= 0.08\ngini = 0.48\nsamples = 15\nvalue = [9, 6]"] ;
717 -> 723 ;
724 [label="gini = 0.0\nsamples = 4\nvalue = [4, 0]"] ;
723 -> 724 ;
725 [label="X[2] <= 0.5\ngini = 0.496\nsamples = 11\nvalue = [5, 6]"] ;
723 -> 725 ;
726 [label="gini = 0.444\nsamples = 9\nvalue = [3, 6]"] ;
725 -> 726 ;
727 [label="gini = 0.0\nsamples = 2\nvalue = [2, 0]"] ;
725 -> 727 ;
728 [label="gini = 0.0\nsamples = 2\nvalue = [0, 2]"] ;
716 -> 728 ;
729 [label="X[0] <= 0.117\ngini = 0.37\nsamples = 102\nvalue = [77, 25]"] ;
695 -> 729 ;
730 [label="X[0] <= 0.088\ngini = 0.362\nsamples = 101\nvalue = [77, 24]"] ;
729 -> 730 ;
731 [label="gini = 0.0\nsamples = 7\nvalue = [7, 0]"] ;
730 -> 731 ;
732 [label="X[0] <= 0.089\ngini = 0.38\nsamples = 94\nvalue = [70, 24]"] ;
730 -> 732 ;
733 [label="X[0] <= 0.088\ngini = 0.444\nsamples = 6\nvalue = [2, 4]"] ;
732 -> 733 ;
734 [label="X[3] <= 0.5\ngini = 0.444\nsamples = 3\nvalue = [2, 1]"] ;
733 -> 734 ;
735 [label="gini = 0.0\nsamples = 1\nvalue = [0, 1]"] ;
734 -> 735 ;
736 [label="gini = 0.0\nsamples = 2\nvalue = [2, 0]"] ;
734 -> 736 ;
737 [label="gini = 0.0\nsamples = 3\nvalue = [0, 3]"] ;
733 -> 737 ;
738 [label="X[0] <= 0.112\ngini = 0.351\nsamples = 88\nvalue = [68, 20]"] ;
732 -> 738 ;
739 [label="X[0] <= 0.109\ngini = 0.332\nsamples = 81\nvalue = [64, 17]"] ;
738 -> 739 ;
740 [label="gini = 0.354\nsamples = 74\nvalue = [57, 17]"] ;
739 -> 740 ;
741 [label="gini = 0.0\nsamples = 7\nvalue = [7, 0]"] ;
739 -> 741 ;
742 [label="X[1] <= 0.579\ngini = 0.49\nsamples = 7\nvalue = [4, 3]"] ;
738 -> 742 ;
743 [label="gini = 0.48\nsamples = 5\nvalue = [2, 3]"] ;
742 -> 743 ;
744 [label="gini = 0.0\nsamples = 2\nvalue = [2, 0]"] ;
742 -> 744 ;
745 [label="gini = 0.0\nsamples = 1\nvalue = [0, 1]"] ;
729 -> 745 ;
746 [label="X[0] <= 0.073\ngini = 0.495\nsamples = 116\nvalue = [52, 64]"] ;
646 -> 746 ;
747 [label="X[1] <= 0.447\ngini = 0.36\nsamples = 34\nvalue = [8, 26]"] ;
746 -> 747 ;
748 [label="gini = 0.0\nsamples = 8\nvalue = [0, 8]"] ;
747 -> 748 ;
749 [label="X[0] <= 0.071\ngini = 0.426\nsamples = 26\nvalue = [8, 18]"] ;
747 -> 749 ;
750 [label="X[0] <= 0.071\ngini = 0.5\nsamples = 6\nvalue = [3, 3]"] ;
749 -> 750 ;
751 [label="X[1] <= 0.526\ngini = 0.48\nsamples = 5\nvalue = [2, 3]"] ;
750 -> 751 ;
752 [label="gini = 0.0\nsamples = 1\nvalue = [0, 1]"] ;
751 -> 752 ;
753 [label="X[1] <= 0.737\ngini = 0.5\nsamples = 4\nvalue = [2, 2]"] ;
751 -> 753 ;
754 [label="gini = 0.0\nsamples = 1\nvalue = [1, 0]"] ;
753 -> 754 ;
755 [label="X[1] <= 0.947\ngini = 0.444\nsamples = 3\nvalue = [1, 2]"] ;
753 -> 755 ;
756 [label="gini = 0.0\nsamples = 1\nvalue = [0, 1]"] ;
755 -> 756 ;
757 [label="gini = 0.5\nsamples = 2\nvalue = [1, 1]"] ;
755 -> 757 ;
758 [label="gini = 0.0\nsamples = 1\nvalue = [1, 0]"] ;
750 -> 758 ;
759 [label="X[1] <= 0.605\ngini = 0.375\nsamples = 20\nvalue = [5, 15]"] ;
749 -> 759 ;
760 [label="X[0] <= 0.072\ngini = 0.198\nsamples = 9\nvalue = [1, 8]"] ;
759 -> 760 ;
761 [label="X[0] <= 0.072\ngini = 0.32\nsamples = 5\nvalue = [1, 4]"] ;
760 -> 761 ;
762 [label="gini = 0.0\nsamples = 3\nvalue = [0, 3]"] ;
761 -> 762 ;
763 [label="X[1] <= 0.526\ngini = 0.5\nsamples = 2\nvalue = [1, 1]"] ;
761 -> 763 ;
764 [label="gini = 0.0\nsamples = 1\nvalue = [0, 1]"] ;
763 -> 764 ;
765 [label="gini = 0.0\nsamples = 1\nvalue = [1, 0]"] ;
763 -> 765 ;
766 [label="gini = 0.0\nsamples = 4\nvalue = [0, 4]"] ;
760 -> 766 ;
767 [label="X[1] <= 0.789\ngini = 0.463\nsamples = 11\nvalue = [4, 7]"] ;
759 -> 767 ;
768 [label="gini = 0.0\nsamples = 2\nvalue = [2, 0]"] ;
767 -> 768 ;
769 [label="X[0] <= 0.073\ngini = 0.346\nsamples = 9\nvalue = [2, 7]"] ;
767 -> 769 ;
770 [label="X[0] <= 0.072\ngini = 0.444\nsamples = 6\nvalue = [2, 4]"] ;
769 -> 770 ;
771 [label="gini = 0.32\nsamples = 5\nvalue = [1, 4]"] ;
770 -> 771 ;
772 [label="gini = 0.0\nsamples = 1\nvalue = [1, 0]"] ;
770 -> 772 ;
773 [label="gini = 0.0\nsamples = 3\nvalue = [0, 3]"] ;
769 -> 773 ;
774 [label="X[0] <= 0.079\ngini = 0.497\nsamples = 82\nvalue = [44, 38]"] ;
746 -> 774 ;
775 [label="X[2] <= 0.722\ngini = 0.397\nsamples = 22\nvalue = [16, 6]"] ;
774 -> 775 ;
776 [label="gini = 0.0\nsamples = 1\nvalue = [0, 1]"] ;
775 -> 776 ;
777 [label="X[1] <= 0.974\ngini = 0.363\nsamples = 21\nvalue = [16, 5]"] ;
775 -> 777 ;
778 [label="X[1] <= 0.368\ngini = 0.278\nsamples = 18\nvalue = [15, 3]"] ;
777 -> 778 ;
779 [label="gini = 0.0\nsamples = 1\nvalue = [0, 1]"] ;
778 -> 779 ;
780 [label="X[1] <= 0.868\ngini = 0.208\nsamples = 17\nvalue = [15, 2]"] ;
778 -> 780 ;
781 [label="X[1] <= 0.789\ngini = 0.32\nsamples = 10\nvalue = [8, 2]"] ;
780 -> 781 ;
782 [label="gini = 0.198\nsamples = 9\nvalue = [8, 1]"] ;
781 -> 782 ;
783 [label="gini = 0.0\nsamples = 1\nvalue = [0, 1]"] ;
781 -> 783 ;
784 [label="gini = 0.0\nsamples = 7\nvalue = [7, 0]"] ;
780 -> 784 ;
785 [label="X[0] <= 0.075\ngini = 0.444\nsamples = 3\nvalue = [1, 2]"] ;
777 -> 785 ;
786 [label="gini = 0.0\nsamples = 1\nvalue = [0, 1]"] ;
785 -> 786 ;
787 [label="X[0] <= 0.077\ngini = 0.5\nsamples = 2\nvalue = [1, 1]"] ;
785 -> 787 ;
788 [label="gini = 0.0\nsamples = 1\nvalue = [1, 0]"] ;
787 -> 788 ;
789 [label="gini = 0.0\nsamples = 1\nvalue = [0, 1]"] ;
787 -> 789 ;
790 [label="X[1] <= 0.605\ngini = 0.498\nsamples = 60\nvalue = [28, 32]"] ;
774 -> 790 ;
791 [label="X[0] <= 0.082\ngini = 0.466\nsamples = 27\nvalue = [17, 10]"] ;
790 -> 791 ;
792 [label="gini = 0.0\nsamples = 2\nvalue = [2, 0]"] ;
791 -> 792 ;
793 [label="X[0] <= 0.095\ngini = 0.48\nsamples = 25\nvalue = [15, 10]"] ;
791 -> 793 ;
794 [label="X[0] <= 0.085\ngini = 0.444\nsamples = 6\nvalue = [2, 4]"] ;
793 -> 794 ;
795 [label="X[0] <= 0.083\ngini = 0.444\nsamples = 3\nvalue = [2, 1]"] ;
794 -> 795 ;
796 [label="gini = 0.0\nsamples = 1\nvalue = [0, 1]"] ;
795 -> 796 ;
797 [label="gini = 0.0\nsamples = 2\nvalue = [2, 0]"] ;
795 -> 797 ;
798 [label="gini = 0.0\nsamples = 3\nvalue = [0, 3]"] ;
794 -> 798 ;
799 [label="X[0] <= 0.097\ngini = 0.432\nsamples = 19\nvalue = [13, 6]"] ;
793 -> 799 ;
800 [label="X[1] <= 0.526\ngini = 0.355\nsamples = 13\nvalue = [10, 3]"] ;
799 -> 800 ;
801 [label="gini = 0.278\nsamples = 12\nvalue = [10, 2]"] ;
800 -> 801 ;
802 [label="gini = 0.0\nsamples = 1\nvalue = [0, 1]"] ;
800 -> 802 ;
803 [label="X[1] <= 0.368\ngini = 0.5\nsamples = 6\nvalue = [3, 3]"] ;
799 -> 803 ;
804 [label="gini = 0.0\nsamples = 2\nvalue = [0, 2]"] ;
803 -> 804 ;
805 [label="gini = 0.375\nsamples = 4\nvalue = [3, 1]"] ;
803 -> 805 ;
806 [label="X[0] <= 0.094\ngini = 0.444\nsamples = 33\nvalue = [11, 22]"] ;
790 -> 806 ;
807 [label="X[1] <= 0.974\ngini = 0.278\nsamples = 12\nvalue = [2, 10]"] ;
806 -> 807 ;
808 [label="X[2] <= 0.722\ngini = 0.18\nsamples = 10\nvalue = [1, 9]"] ;
807 -> 808 ;
809 [label="X[0] <= 0.084\ngini = 0.5\nsamples = 2\nvalue = [1, 1]"] ;
808 -> 809 ;
810 [label="gini = 0.0\nsamples = 1\nvalue = [0, 1]"] ;
809 -> 810 ;
811 [label="gini = 0.0\nsamples = 1\nvalue = [1, 0]"] ;
809 -> 811 ;
812 [label="gini = 0.0\nsamples = 8\nvalue = [0, 8]"] ;
808 -> 812 ;
813 [label="X[0] <= 0.083\ngini = 0.5\nsamples = 2\nvalue = [1, 1]"] ;
807 -> 813 ;
814 [label="gini = 0.0\nsamples = 1\nvalue = [0, 1]"] ;
813 -> 814 ;
815 [label="gini = 0.0\nsamples = 1\nvalue = [1, 0]"] ;
813 -> 815 ;
816 [label="X[0] <= 0.096\ngini = 0.49\nsamples = 21\nvalue = [9, 12]"] ;
806 -> 816 ;
817 [label="gini = 0.0\nsamples = 4\nvalue = [4, 0]"] ;
816 -> 817 ;
818 [label="X[0] <= 0.115\ngini = 0.415\nsamples = 17\nvalue = [5, 12]"] ;
816 -> 818 ;
819 [label="X[1] <= 0.921\ngini = 0.375\nsamples = 16\nvalue = [4, 12]"] ;
818 -> 819 ;
820 [label="gini = 0.0\nsamples = 7\nvalue = [0, 7]"] ;
819 -> 820 ;
821 [label="gini = 0.494\nsamples = 9\nvalue = [4, 5]"] ;
819 -> 821 ;
822 [label="gini = 0.0\nsamples = 1\nvalue = [1, 0]"] ;
818 -> 822 ;
823 [label="X[0] <= 0.083\ngini = 0.34\nsamples = 46\nvalue = [36, 10]"] ;
645 -> 823 ;
824 [label="X[0] <= 0.075\ngini = 0.219\nsamples = 24\nvalue = [21, 3]"] ;
823 -> 824 ;
825 [label="X[1] <= 0.5\ngini = 0.375\nsamples = 12\nvalue = [9, 3]"] ;
824 -> 825 ;
826 [label="gini = 0.0\nsamples = 5\nvalue = [5, 0]"] ;
825 -> 826 ;
827 [label="X[0] <= 0.073\ngini = 0.49\nsamples = 7\nvalue = [4, 3]"] ;
825 -> 827 ;
828 [label="X[3] <= 0.5\ngini = 0.32\nsamples = 5\nvalue = [4, 1]"] ;
827 -> 828 ;
829 [label="gini = 0.0\nsamples = 2\nvalue = [2, 0]"] ;
828 -> 829 ;
830 [label="X[0] <= 0.072\ngini = 0.444\nsamples = 3\nvalue = [2, 1]"] ;
828 -> 830 ;
831 [label="gini = 0.0\nsamples = 2\nvalue = [2, 0]"] ;
830 -> 831 ;
832 [label="gini = 0.0\nsamples = 1\nvalue = [0, 1]"] ;
830 -> 832 ;
833 [label="gini = 0.0\nsamples = 2\nvalue = [0, 2]"] ;
827 -> 833 ;
834 [label="gini = 0.0\nsamples = 12\nvalue = [12, 0]"] ;
824 -> 834 ;
835 [label="X[0] <= 0.087\ngini = 0.434\nsamples = 22\nvalue = [15, 7]"] ;
823 -> 835 ;
836 [label="gini = 0.0\nsamples = 2\nvalue = [0, 2]"] ;
835 -> 836 ;
837 [label="X[0] <= 0.104\ngini = 0.375\nsamples = 20\nvalue = [15, 5]"] ;
835 -> 837 ;
838 [label="X[0] <= 0.096\ngini = 0.305\nsamples = 16\nvalue = [13, 3]"] ;
837 -> 838 ;
839 [label="X[1] <= 0.342\ngini = 0.42\nsamples = 10\nvalue = [7, 3]"] ;
838 -> 839 ;
840 [label="X[1] <= 0.105\ngini = 0.444\nsamples = 3\nvalue = [1, 2]"] ;
839 -> 840 ;
841 [label="gini = 0.0\nsamples = 1\nvalue = [1, 0]"] ;
840 -> 841 ;
842 [label="gini = 0.0\nsamples = 2\nvalue = [0, 2]"] ;
840 -> 842 ;
843 [label="X[0] <= 0.096\ngini = 0.245\nsamples = 7\nvalue = [6, 1]"] ;
839 -> 843 ;
844 [label="gini = 0.0\nsamples = 6\nvalue = [6, 0]"] ;
843 -> 844 ;
845 [label="gini = 0.0\nsamples = 1\nvalue = [0, 1]"] ;
843 -> 845 ;
846 [label="gini = 0.0\nsamples = 6\nvalue = [6, 0]"] ;
838 -> 846 ;
847 [label="X[1] <= 0.289\ngini = 0.5\nsamples = 4\nvalue = [2, 2]"] ;
837 -> 847 ;
848 [label="gini = 0.0\nsamples = 2\nvalue = [2, 0]"] ;
847 -> 848 ;
849 [label="gini = 0.0\nsamples = 2\nvalue = [0, 2]"] ;
847 -> 849 ;
850 [label="X[0] <= 0.121\ngini = 0.341\nsamples = 225\nvalue = [176, 49]"] ;
338 -> 850 ;
851 [label="X[1] <= 0.974\ngini = 0.243\nsamples = 127\nvalue = [109, 18]"] ;
850 -> 851 ;
852 [label="X[3] <= 0.5\ngini = 0.222\nsamples = 118\nvalue = [103, 15]"] ;
851 -> 852 ;
853 [label="X[0] <= 0.121\ngini = 0.158\nsamples = 58\nvalue = [53, 5]"] ;
852 -> 853 ;
854 [label="X[0] <= 0.12\ngini = 0.234\nsamples = 37\nvalue = [32, 5]"] ;
853 -> 854 ;
855 [label="gini = 0.0\nsamples = 6\nvalue = [6, 0]"] ;
854 -> 855 ;
856 [label="X[2] <= 0.333\ngini = 0.271\nsamples = 31\nvalue = [26, 5]"] ;
854 -> 856 ;
857 [label="X[1] <= 0.789\ngini = 0.397\nsamples = 11\nvalue = [8, 3]"] ;
856 -> 857 ;
858 [label="X[2] <= 0.111\ngini = 0.245\nsamples = 7\nvalue = [6, 1]"] ;
857 -> 858 ;
859 [label="gini = 0.0\nsamples = 4\nvalue = [4, 0]"] ;
858 -> 859 ;
860 [label="X[1] <= 0.579\ngini = 0.444\nsamples = 3\nvalue = [2, 1]"] ;
858 -> 860 ;
861 [label="gini = 0.5\nsamples = 2\nvalue = [1, 1]"] ;
860 -> 861 ;
862 [label="gini = 0.0\nsamples = 1\nvalue = [1, 0]"] ;
860 -> 862 ;
863 [label="X[2] <= 0.111\ngini = 0.5\nsamples = 4\nvalue = [2, 2]"] ;
857 -> 863 ;
864 [label="X[0] <= 0.121\ngini = 0.444\nsamples = 3\nvalue = [1, 2]"] ;
863 -> 864 ;
865 [label="gini = 0.0\nsamples = 1\nvalue = [0, 1]"] ;
864 -> 865 ;
866 [label="X[1] <= 0.868\ngini = 0.5\nsamples = 2\nvalue = [1, 1]"] ;
864 -> 866 ;
867 [label="gini = 0.0\nsamples = 1\nvalue = [1, 0]"] ;
866 -> 867 ;
868 [label="gini = 0.0\nsamples = 1\nvalue = [0, 1]"] ;
866 -> 868 ;
869 [label="gini = 0.0\nsamples = 1\nvalue = [1, 0]"] ;
863 -> 869 ;
870 [label="X[1] <= 0.211\ngini = 0.18\nsamples = 20\nvalue = [18, 2]"] ;
856 -> 870 ;
871 [label="X[2] <= 0.5\ngini = 0.444\nsamples = 3\nvalue = [2, 1]"] ;
870 -> 871 ;
872 [label="gini = 0.0\nsamples = 2\nvalue = [2, 0]"] ;
871 -> 872 ;
873 [label="gini = 0.0\nsamples = 1\nvalue = [0, 1]"] ;
871 -> 873 ;
874 [label="X[0] <= 0.121\ngini = 0.111\nsamples = 17\nvalue = [16, 1]"] ;
870 -> 874 ;
875 [label="X[1] <= 0.763\ngini = 0.375\nsamples = 4\nvalue = [3, 1]"] ;
874 -> 875 ;
876 [label="X[1] <= 0.579\ngini = 0.5\nsamples = 2\nvalue = [1, 1]"] ;
875 -> 876 ;
877 [label="gini = 0.0\nsamples = 1\nvalue = [1, 0]"] ;
876 -> 877 ;
878 [label="gini = 0.0\nsamples = 1\nvalue = [0, 1]"] ;
876 -> 878 ;
879 [label="gini = 0.0\nsamples = 2\nvalue = [2, 0]"] ;
875 -> 879 ;
880 [label="gini = 0.0\nsamples = 13\nvalue = [13, 0]"] ;
874 -> 880 ;
881 [label="gini = 0.0\nsamples = 21\nvalue = [21, 0]"] ;
853 -> 881 ;
882 [label="X[2] <= 0.722\ngini = 0.278\nsamples = 60\nvalue = [50, 10]"] ;
852 -> 882 ;
883 [label="X[0] <= 0.12\ngini = 0.223\nsamples = 47\nvalue = [41, 6]"] ;
882 -> 883 ;
884 [label="X[0] <= 0.119\ngini = 0.48\nsamples = 5\nvalue = [3, 2]"] ;
883 -> 884 ;
885 [label="gini = 0.0\nsamples = 3\nvalue = [3, 0]"] ;
884 -> 885 ;
886 [label="gini = 0.0\nsamples = 2\nvalue = [0, 2]"] ;
884 -> 886 ;
887 [label="X[2] <= 0.167\ngini = 0.172\nsamples = 42\nvalue = [38, 4]"] ;
883 -> 887 ;
888 [label="X[2] <= 0.056\ngini = 0.266\nsamples = 19\nvalue = [16, 3]"] ;
887 -> 888 ;
889 [label="X[0] <= 0.121\ngini = 0.208\nsamples = 17\nvalue = [15, 2]"] ;
888 -> 889 ;
890 [label="X[1] <= 0.5\ngini = 0.133\nsamples = 14\nvalue = [13, 1]"] ;
889 -> 890 ;
891 [label="X[1] <= 0.447\ngini = 0.375\nsamples = 4\nvalue = [3, 1]"] ;
890 -> 891 ;
892 [label="gini = 0.0\nsamples = 3\nvalue = [3, 0]"] ;
891 -> 892 ;
893 [label="gini = 0.0\nsamples = 1\nvalue = [0, 1]"] ;
891 -> 893 ;
894 [label="gini = 0.0\nsamples = 10\nvalue = [10, 0]"] ;
890 -> 894 ;
895 [label="X[1] <= 0.816\ngini = 0.444\nsamples = 3\nvalue = [2, 1]"] ;
889 -> 895 ;
896 [label="gini = 0.0\nsamples = 2\nvalue = [2, 0]"] ;
895 -> 896 ;
897 [label="gini = 0.0\nsamples = 1\nvalue = [0, 1]"] ;
895 -> 897 ;
898 [label="X[1] <= 0.763\ngini = 0.5\nsamples = 2\nvalue = [1, 1]"] ;
888 -> 898 ;
899 [label="gini = 0.0\nsamples = 1\nvalue = [0, 1]"] ;
898 -> 899 ;
900 [label="gini = 0.0\nsamples = 1\nvalue = [1, 0]"] ;
898 -> 900 ;
901 [label="X[1] <= 0.526\ngini = 0.083\nsamples = 23\nvalue = [22, 1]"] ;
887 -> 901 ;
902 [label="X[0] <= 0.121\ngini = 0.198\nsamples = 9\nvalue = [8, 1]"] ;
901 -> 902 ;
903 [label="gini = 0.0\nsamples = 4\nvalue = [4, 0]"] ;
902 -> 903 ;
904 [label="X[0] <= 0.121\ngini = 0.32\nsamples = 5\nvalue = [4, 1]"] ;
902 -> 904 ;
905 [label="X[1] <= 0.237\ngini = 0.5\nsamples = 2\nvalue = [1, 1]"] ;
904 -> 905 ;
906 [label="gini = 0.0\nsamples = 1\nvalue = [1, 0]"] ;
905 -> 906 ;
907 [label="gini = 0.0\nsamples = 1\nvalue = [0, 1]"] ;
905 -> 907 ;
908 [label="gini = 0.0\nsamples = 3\nvalue = [3, 0]"] ;
904 -> 908 ;
909 [label="gini = 0.0\nsamples = 14\nvalue = [14, 0]"] ;
901 -> 909 ;
910 [label="X[1] <= 0.763\ngini = 0.426\nsamples = 13\nvalue = [9, 4]"] ;
882 -> 910 ;
911 [label="X[0] <= 0.121\ngini = 0.245\nsamples = 7\nvalue = [6, 1]"] ;
910 -> 911 ;
912 [label="gini = 0.0\nsamples = 4\nvalue = [4, 0]"] ;
911 -> 912 ;
913 [label="X[1] <= 0.368\ngini = 0.444\nsamples = 3\nvalue = [2, 1]"] ;
911 -> 913 ;
914 [label="gini = 0.0\nsamples = 1\nvalue = [1, 0]"] ;
913 -> 914 ;
915 [label="gini = 0.5\nsamples = 2\nvalue = [1, 1]"] ;
913 -> 915 ;
916 [label="X[0] <= 0.121\ngini = 0.5\nsamples = 6\nvalue = [3, 3]"] ;
910 -> 916 ;
917 [label="X[0] <= 0.121\ngini = 0.48\nsamples = 5\nvalue = [2, 3]"] ;
916 -> 917 ;
918 [label="X[0] <= 0.121\ngini = 0.444\nsamples = 3\nvalue = [2, 1]"] ;
917 -> 918 ;
919 [label="gini = 0.5\nsamples = 2\nvalue = [1, 1]"] ;
918 -> 919 ;
920 [label="gini = 0.0\nsamples = 1\nvalue = [1, 0]"] ;
918 -> 920 ;
921 [label="gini = 0.0\nsamples = 2\nvalue = [0, 2]"] ;
917 -> 921 ;
922 [label="gini = 0.0\nsamples = 1\nvalue = [1, 0]"] ;
916 -> 922 ;
923 [label="X[2] <= 0.222\ngini = 0.444\nsamples = 9\nvalue = [6, 3]"] ;
851 -> 923 ;
924 [label="gini = 0.0\nsamples = 1\nvalue = [0, 1]"] ;
923 -> 924 ;
925 [label="X[0] <= 0.121\ngini = 0.375\nsamples = 8\nvalue = [6, 2]"] ;
923 -> 925 ;
926 [label="gini = 0.0\nsamples = 4\nvalue = [4, 0]"] ;
925 -> 926 ;
927 [label="X[3] <= 0.5\ngini = 0.5\nsamples = 4\nvalue = [2, 2]"] ;
925 -> 927 ;
928 [label="gini = 0.0\nsamples = 1\nvalue = [0, 1]"] ;
927 -> 928 ;
929 [label="gini = 0.444\nsamples = 3\nvalue = [2, 1]"] ;
927 -> 929 ;
930 [label="X[1] <= 0.5\ngini = 0.433\nsamples = 98\nvalue = [67, 31]"] ;
850 -> 930 ;
931 [label="X[2] <= 0.389\ngini = 0.491\nsamples = 37\nvalue = [21, 16]"] ;
930 -> 931 ;
932 [label="X[1] <= 0.263\ngini = 0.375\nsamples = 4\nvalue = [1, 3]"] ;
931 -> 932 ;
933 [label="gini = 0.0\nsamples = 1\nvalue = [1, 0]"] ;
932 -> 933 ;
934 [label="gini = 0.0\nsamples = 3\nvalue = [0, 3]"] ;
932 -> 934 ;
935 [label="X[1] <= 0.132\ngini = 0.478\nsamples = 33\nvalue = [20, 13]"] ;
931 -> 935 ;
936 [label="X[0] <= 0.121\ngini = 0.375\nsamples = 4\nvalue = [1, 3]"] ;
935 -> 936 ;
937 [label="gini = 0.5\nsamples = 2\nvalue = [1, 1]"] ;
936 -> 937 ;
938 [label="gini = 0.0\nsamples = 2\nvalue = [0, 2]"] ;
936 -> 938 ;
939 [label="X[2] <= 0.722\ngini = 0.452\nsamples = 29\nvalue = [19, 10]"] ;
935 -> 939 ;
940 [label="X[1] <= 0.263\ngini = 0.49\nsamples = 14\nvalue = [8, 6]"] ;
939 -> 940 ;
941 [label="gini = 0.0\nsamples = 1\nvalue = [0, 1]"] ;
940 -> 941 ;
942 [label="X[1] <= 0.447\ngini = 0.473\nsamples = 13\nvalue = [8, 5]"] ;
940 -> 942 ;
943 [label="X[2] <= 0.5\ngini = 0.278\nsamples = 6\nvalue = [5, 1]"] ;
942 -> 943 ;
944 [label="X[3] <= 0.5\ngini = 0.444\nsamples = 3\nvalue = [2, 1]"] ;
943 -> 944 ;
945 [label="X[0] <= 0.121\ngini = 0.5\nsamples = 2\nvalue = [1, 1]"] ;
944 -> 945 ;
946 [label="gini = 0.0\nsamples = 1\nvalue = [0, 1]"] ;
945 -> 946 ;
947 [label="gini = 0.0\nsamples = 1\nvalue = [1, 0]"] ;
945 -> 947 ;
948 [label="gini = 0.0\nsamples = 1\nvalue = [1, 0]"] ;
944 -> 948 ;
949 [label="gini = 0.0\nsamples = 3\nvalue = [3, 0]"] ;
943 -> 949 ;
950 [label="X[2] <= 0.5\ngini = 0.49\nsamples = 7\nvalue = [3, 4]"] ;
942 -> 950 ;
951 [label="gini = 0.0\nsamples = 1\nvalue = [1, 0]"] ;
950 -> 951 ;
952 [label="X[0] <= 0.121\ngini = 0.444\nsamples = 6\nvalue = [2, 4]"] ;
950 -> 952 ;
953 [label="gini = 0.0\nsamples = 1\nvalue = [0, 1]"] ;
952 -> 953 ;
954 [label="X[2] <= 0.611\ngini = 0.48\nsamples = 5\nvalue = [2, 3]"] ;
952 -> 954 ;
955 [label="gini = 0.5\nsamples = 2\nvalue = [1, 1]"] ;
954 -> 955 ;
956 [label="gini = 0.444\nsamples = 3\nvalue = [1, 2]"] ;
954 -> 956 ;
957 [label="X[3] <= 0.5\ngini = 0.391\nsamples = 15\nvalue = [11, 4]"] ;
939 -> 957 ;
958 [label="X[2] <= 0.944\ngini = 0.469\nsamples = 8\nvalue = [5, 3]"] ;
957 -> 958 ;
959 [label="X[2] <= 0.833\ngini = 0.408\nsamples = 7\nvalue = [5, 2]"] ;
958 -> 959 ;
960 [label="X[1] <= 0.447\ngini = 0.48\nsamples = 5\nvalue = [3, 2]"] ;
959 -> 960 ;
961 [label="gini = 0.0\nsamples = 1\nvalue = [1, 0]"] ;
960 -> 961 ;
962 [label="X[0] <= 0.121\ngini = 0.5\nsamples = 4\nvalue = [2, 2]"] ;
960 -> 962 ;
963 [label="gini = 0.0\nsamples = 1\nvalue = [1, 0]"] ;
962 -> 963 ;
964 [label="gini = 0.444\nsamples = 3\nvalue = [1, 2]"] ;
962 -> 964 ;
965 [label="gini = 0.0\nsamples = 2\nvalue = [2, 0]"] ;
959 -> 965 ;
966 [label="gini = 0.0\nsamples = 1\nvalue = [0, 1]"] ;
958 -> 966 ;
967 [label="X[1] <= 0.447\ngini = 0.245\nsamples = 7\nvalue = [6, 1]"] ;
957 -> 967 ;
968 [label="gini = 0.444\nsamples = 3\nvalue = [2, 1]"] ;
967 -> 968 ;
969 [label="gini = 0.0\nsamples = 4\nvalue = [4, 0]"] ;
967 -> 969 ;
970 [label="X[1] <= 0.921\ngini = 0.371\nsamples = 61\nvalue = [46, 15]"] ;
930 -> 970 ;
971 [label="X[3] <= 0.5\ngini = 0.283\nsamples = 41\nvalue = [34, 7]"] ;
970 -> 971 ;
972 [label="X[1] <= 0.658\ngini = 0.43\nsamples = 16\nvalue = [11, 5]"] ;
971 -> 972 ;
973 [label="X[2] <= 0.722\ngini = 0.48\nsamples = 5\nvalue = [2, 3]"] ;
972 -> 973 ;
974 [label="gini = 0.0\nsamples = 2\nvalue = [2, 0]"] ;
973 -> 974 ;
975 [label="gini = 0.0\nsamples = 3\nvalue = [0, 3]"] ;
973 -> 975 ;
976 [label="X[2] <= 0.611\ngini = 0.298\nsamples = 11\nvalue = [9, 2]"] ;
972 -> 976 ;
977 [label="X[2] <= 0.333\ngini = 0.5\nsamples = 2\nvalue = [1, 1]"] ;
976 -> 977 ;
978 [label="gini = 0.0\nsamples = 1\nvalue = [1, 0]"] ;
977 -> 978 ;
979 [label="gini = 0.0\nsamples = 1\nvalue = [0, 1]"] ;
977 -> 979 ;
980 [label="X[1] <= 0.789\ngini = 0.198\nsamples = 9\nvalue = [8, 1]"] ;
976 -> 980 ;
981 [label="X[1] <= 0.711\ngini = 0.375\nsamples = 4\nvalue = [3, 1]"] ;
980 -> 981 ;
982 [label="gini = 0.0\nsamples = 3\nvalue = [3, 0]"] ;
981 -> 982 ;
983 [label="gini = 0.0\nsamples = 1\nvalue = [0, 1]"] ;
981 -> 983 ;
984 [label="gini = 0.0\nsamples = 5\nvalue = [5, 0]"] ;
980 -> 984 ;
985 [label="X[1] <= 0.763\ngini = 0.147\nsamples = 25\nvalue = [23, 2]"] ;
971 -> 985 ;
986 [label="gini = 0.0\nsamples = 12\nvalue = [12, 0]"] ;
985 -> 986 ;
987 [label="X[1] <= 0.868\ngini = 0.26\nsamples = 13\nvalue = [11, 2]"] ;
985 -> 987 ;
988 [label="X[2] <= 0.889\ngini = 0.5\nsamples = 2\nvalue = [1, 1]"] ;
987 -> 988 ;
989 [label="gini = 0.0\nsamples = 1\nvalue = [0, 1]"] ;
988 -> 989 ;
990 [label="gini = 0.0\nsamples = 1\nvalue = [1, 0]"] ;
988 -> 990 ;
991 [label="X[2] <= 0.167\ngini = 0.165\nsamples = 11\nvalue = [10, 1]"] ;
987 -> 991 ;
992 [label="X[0] <= 0.121\ngini = 0.444\nsamples = 3\nvalue = [2, 1]"] ;
991 -> 992 ;
993 [label="gini = 0.0\nsamples = 2\nvalue = [2, 0]"] ;
992 -> 993 ;
994 [label="gini = 0.0\nsamples = 1\nvalue = [0, 1]"] ;
992 -> 994 ;
995 [label="gini = 0.0\nsamples = 8\nvalue = [8, 0]"] ;
991 -> 995 ;
996 [label="X[2] <= 0.278\ngini = 0.48\nsamples = 20\nvalue = [12, 8]"] ;
970 -> 996 ;
997 [label="X[0] <= 0.121\ngini = 0.245\nsamples = 7\nvalue = [6, 1]"] ;
996 -> 997 ;
998 [label="X[3] <= 0.5\ngini = 0.375\nsamples = 4\nvalue = [3, 1]"] ;
997 -> 998 ;
999 [label="X[2] <= 0.111\ngini = 0.444\nsamples = 3\nvalue = [2, 1]"] ;
998 -> 999 ;
1000 [label="gini = 0.5\nsamples = 2\nvalue = [1, 1]"] ;
999 -> 1000 ;
1001 [label="gini = 0.0\nsamples = 1\nvalue = [1, 0]"] ;
999 -> 1001 ;
1002 [label="gini = 0.0\nsamples = 1\nvalue = [1, 0]"] ;
998 -> 1002 ;
1003 [label="gini = 0.0\nsamples = 3\nvalue = [3, 0]"] ;
997 -> 1003 ;
1004 [label="X[2] <= 0.5\ngini = 0.497\nsamples = 13\nvalue = [6, 7]"] ;
996 -> 1004 ;
1005 [label="gini = 0.0\nsamples = 1\nvalue = [0, 1]"] ;
1004 -> 1005 ;
1006 [label="X[2] <= 0.722\ngini = 0.5\nsamples = 12\nvalue = [6, 6]"] ;
1004 -> 1006 ;
1007 [label="gini = 0.0\nsamples = 1\nvalue = [1, 0]"] ;
1006 -> 1007 ;
1008 [label="X[0] <= 0.121\ngini = 0.496\nsamples = 11\nvalue = [5, 6]"] ;
1006 -> 1008 ;
1009 [label="X[1] <= 0.974\ngini = 0.48\nsamples = 5\nvalue = [2, 3]"] ;
1008 -> 1009 ;
1010 [label="X[3] <= 0.5\ngini = 0.375\nsamples = 4\nvalue = [1, 3]"] ;
1009 -> 1010 ;
1011 [label="gini = 0.444\nsamples = 3\nvalue = [1, 2]"] ;
1010 -> 1011 ;
1012 [label="gini = 0.0\nsamples = 1\nvalue = [0, 1]"] ;
1010 -> 1012 ;
1013 [label="gini = 0.0\nsamples = 1\nvalue = [1, 0]"] ;
1009 -> 1013 ;
1014 [label="X[1] <= 0.974\ngini = 0.5\nsamples = 6\nvalue = [3, 3]"] ;
1008 -> 1014 ;
1015 [label="X[3] <= 0.5\ngini = 0.48\nsamples = 5\nvalue = [3, 2]"] ;
1014 -> 1015 ;
1016 [label="gini = 0.5\nsamples = 2\nvalue = [1, 1]"] ;
1015 -> 1016 ;
1017 [label="gini = 0.444\nsamples = 3\nvalue = [2, 1]"] ;
1015 -> 1017 ;
1018 [label="gini = 0.0\nsamples = 1\nvalue = [0, 1]"] ;
1014 -> 1018 ;
1019 [label="X[0] <= 0.638\ngini = 0.491\nsamples = 2919\nvalue = [1656, 1263]"] ;
337 -> 1019 ;
1020 [label="X[0] <= 0.388\ngini = 0.49\nsamples = 2806\nvalue = [1604, 1202]"] ;
1019 -> 1020 ;
1021 [label="X[0] <= 0.38\ngini = 0.492\nsamples = 2369\nvalue = [1332, 1037]"] ;
1020 -> 1021 ;
1022 [label="X[0] <= 0.364\ngini = 0.491\nsamples = 2303\nvalue = [1307, 996]"] ;
1021 -> 1022 ;
1023 [label="X[0] <= 0.328\ngini = 0.492\nsamples = 2245\nvalue = [1263, 982]"] ;
1022 -> 1023 ;
1024 [label="X[0] <= 0.291\ngini = 0.49\nsamples = 2092\nvalue = [1194, 898]"] ;
1023 -> 1024 ;
1025 [label="X[0] <= 0.282\ngini = 0.492\nsamples = 1992\nvalue = [1122, 870]"] ;
1024 -> 1025 ;
1026 [label="X[1] <= 0.447\ngini = 0.491\nsamples = 1955\nvalue = [1110, 845]"] ;
1025 -> 1026 ;
1027 [label="X[1] <= 0.132\ngini = 0.469\nsamples = 363\nvalue = [227, 136]"] ;
1026 -> 1027 ;
1028 [label="X[0] <= 0.123\ngini = 0.497\nsamples = 109\nvalue = [59, 50]"] ;
1027 -> 1028 ;
1029 [label="X[3] <= 0.5\ngini = 0.337\nsamples = 14\nvalue = [3, 11]"] ;
1028 -> 1029 ;
1030 [label="gini = 0.5\nsamples = 6\nvalue = [3, 3]"] ;
1029 -> 1030 ;
1031 [label="gini = 0.0\nsamples = 8\nvalue = [0, 8]"] ;
1029 -> 1031 ;
1032 [label="X[0] <= 0.126\ngini = 0.484\nsamples = 95\nvalue = [56, 39]"] ;
1028 -> 1032 ;
1033 [label="gini = 0.219\nsamples = 8\nvalue = [7, 1]"] ;
1032 -> 1033 ;
1034 [label="gini = 0.492\nsamples = 87\nvalue = [49, 38]"] ;
1032 -> 1034 ;
1035 [label="X[1] <= 0.237\ngini = 0.448\nsamples = 254\nvalue = [168, 86]"] ;
1027 -> 1035 ;
1036 [label="X[0] <= 0.221\ngini = 0.353\nsamples = 35\nvalue = [27, 8]"] ;
1035 -> 1036 ;
1037 [label="gini = 0.408\nsamples = 28\nvalue = [20, 8]"] ;
1036 -> 1037 ;
1038 [label="gini = 0.0\nsamples = 7\nvalue = [7, 0]"] ;
1036 -> 1038 ;
1039 [label="X[1] <= 0.395\ngini = 0.459\nsamples = 219\nvalue = [141, 78]"] ;
1035 -> 1039 ;
1040 [label="gini = 0.5\nsamples = 43\nvalue = [21, 22]"] ;
1039 -> 1040 ;
1041 [label="gini = 0.434\nsamples = 176\nvalue = [120, 56]"] ;
1039 -> 1041 ;
1042 [label="X[2] <= 0.833\ngini = 0.494\nsamples = 1592\nvalue = [883, 709]"] ;
1026 -> 1042 ;
1043 [label="X[2] <= 0.611\ngini = 0.495\nsamples = 1483\nvalue = [813, 670]"] ;
1042 -> 1043 ;
1044 [label="X[0] <= 0.278\ngini = 0.492\nsamples = 1058\nvalue = [594, 464]"] ;
1043 -> 1044 ;
1045 [label="gini = 0.491\nsamples = 1034\nvalue = [586, 448]"] ;
1044 -> 1045 ;
1046 [label="gini = 0.444\nsamples = 24\nvalue = [8, 16]"] ;
1044 -> 1046 ;
1047 [label="X[2] <= 0.722\ngini = 0.5\nsamples = 425\nvalue = [219, 206]"] ;
1043 -> 1047 ;
1048 [label="gini = 0.476\nsamples = 41\nvalue = [16, 25]"] ;
1047 -> 1048 ;
1049 [label="gini = 0.498\nsamples = 384\nvalue = [203, 181]"] ;
1047 -> 1049 ;
1050 [label="X[0] <= 0.183\ngini = 0.46\nsamples = 109\nvalue = [70, 39]"] ;
1042 -> 1050 ;
1051 [label="X[0] <= 0.173\ngini = 0.489\nsamples = 73\nvalue = [42, 31]"] ;
1050 -> 1051 ;
1052 [label="gini = 0.452\nsamples = 58\nvalue = [38, 20]"] ;
1051 -> 1052 ;
1053 [label="gini = 0.391\nsamples = 15\nvalue = [4, 11]"] ;
1051 -> 1053 ;
1054 [label="X[0] <= 0.225\ngini = 0.346\nsamples = 36\nvalue = [28, 8]"] ;
1050 -> 1054 ;
1055 [label="gini = 0.0\nsamples = 12\nvalue = [12, 0]"] ;
1054 -> 1055 ;
1056 [label="gini = 0.444\nsamples = 24\nvalue = [16, 8]"] ;
1054 -> 1056 ;
1057 [label="X[0] <= 0.285\ngini = 0.438\nsamples = 37\nvalue = [12, 25]"] ;
1025 -> 1057 ;
1058 [label="X[0] <= 0.283\ngini = 0.208\nsamples = 17\nvalue = [2, 15]"] ;
1057 -> 1058 ;
1059 [label="gini = 0.0\nsamples = 9\nvalue = [0, 9]"] ;
1058 -> 1059 ;
1060 [label="X[0] <= 0.283\ngini = 0.375\nsamples = 8\nvalue = [2, 6]"] ;
1058 -> 1060 ;
1061 [label="gini = 0.0\nsamples = 1\nvalue = [1, 0]"] ;
1060 -> 1061 ;
1062 [label="X[2] <= 0.5\ngini = 0.245\nsamples = 7\nvalue = [1, 6]"] ;
1060 -> 1062 ;
1063 [label="gini = 0.0\nsamples = 3\nvalue = [0, 3]"] ;
1062 -> 1063 ;
1064 [label="gini = 0.375\nsamples = 4\nvalue = [1, 3]"] ;
1062 -> 1064 ;
1065 [label="X[2] <= 0.611\ngini = 0.5\nsamples = 20\nvalue = [10, 10]"] ;
1057 -> 1065 ;
1066 [label="X[0] <= 0.286\ngini = 0.484\nsamples = 17\nvalue = [7, 10]"] ;
1065 -> 1066 ;
1067 [label="gini = 0.0\nsamples = 4\nvalue = [0, 4]"] ;
1066 -> 1067 ;
1068 [label="X[0] <= 0.289\ngini = 0.497\nsamples = 13\nvalue = [7, 6]"] ;
1066 -> 1068 ;
1069 [label="gini = 0.463\nsamples = 11\nvalue = [7, 4]"] ;
1068 -> 1069 ;
1070 [label="gini = 0.0\nsamples = 2\nvalue = [0, 2]"] ;
1068 -> 1070 ;
1071 [label="gini = 0.0\nsamples = 3\nvalue = [3, 0]"] ;
1065 -> 1071 ;
1072 [label="X[1] <= 0.447\ngini = 0.403\nsamples = 100\nvalue = [72, 28]"] ;
1024 -> 1072 ;
1073 [label="X[0] <= 0.308\ngini = 0.5\nsamples = 18\nvalue = [9, 9]"] ;
1072 -> 1073 ;
1074 [label="X[2] <= 0.278\ngini = 0.32\nsamples = 5\nvalue = [4, 1]"] ;
1073 -> 1074 ;
1075 [label="X[2] <= 0.056\ngini = 0.5\nsamples = 2\nvalue = [1, 1]"] ;
1074 -> 1075 ;
1076 [label="gini = 0.0\nsamples = 1\nvalue = [1, 0]"] ;
1075 -> 1076 ;
1077 [label="gini = 0.0\nsamples = 1\nvalue = [0, 1]"] ;
1075 -> 1077 ;
1078 [label="gini = 0.0\nsamples = 3\nvalue = [3, 0]"] ;
1074 -> 1078 ;
1079 [label="X[0] <= 0.314\ngini = 0.473\nsamples = 13\nvalue = [5, 8]"] ;
1073 -> 1079 ;
1080 [label="gini = 0.0\nsamples = 3\nvalue = [0, 3]"] ;
1079 -> 1080 ;
1081 [label="X[0] <= 0.325\ngini = 0.5\nsamples = 10\nvalue = [5, 5]"] ;
1079 -> 1081 ;
1082 [label="gini = 0.0\nsamples = 2\nvalue = [2, 0]"] ;
1081 -> 1082 ;
1083 [label="X[2] <= 0.611\ngini = 0.469\nsamples = 8\nvalue = [3, 5]"] ;
1081 -> 1083 ;
1084 [label="gini = 0.48\nsamples = 5\nvalue = [3, 2]"] ;
1083 -> 1084 ;
1085 [label="gini = 0.0\nsamples = 3\nvalue = [0, 3]"] ;
1083 -> 1085 ;
1086 [label="X[0] <= 0.326\ngini = 0.356\nsamples = 82\nvalue = [63, 19]"] ;
1072 -> 1086 ;
1087 [label="X[0] <= 0.325\ngini = 0.394\nsamples = 63\nvalue = [46, 17]"] ;
1086 -> 1087 ;
1088 [label="X[0] <= 0.307\ngini = 0.383\nsamples = 62\nvalue = [46, 16]"] ;
1087 -> 1088 ;
1089 [label="X[0] <= 0.305\ngini = 0.285\nsamples = 29\nvalue = [24, 5]"] ;
1088 -> 1089 ;
1090 [label="gini = 0.34\nsamples = 23\nvalue = [18, 5]"] ;
1089 -> 1090 ;
1091 [label="gini = 0.0\nsamples = 6\nvalue = [6, 0]"] ;
1089 -> 1091 ;
1092 [label="X[1] <= 0.974\ngini = 0.444\nsamples = 33\nvalue = [22, 11]"] ;
1088 -> 1092 ;
1093 [label="gini = 0.412\nsamples = 31\nvalue = [22, 9]"] ;
1092 -> 1093 ;
1094 [label="gini = 0.0\nsamples = 2\nvalue = [0, 2]"] ;
1092 -> 1094 ;
1095 [label="gini = 0.0\nsamples = 1\nvalue = [0, 1]"] ;
1087 -> 1095 ;
1096 [label="X[2] <= 0.222\ngini = 0.188\nsamples = 19\nvalue = [17, 2]"] ;
1086 -> 1096 ;
1097 [label="gini = 0.5\nsamples = 2\nvalue = [1, 1]"] ;
1096 -> 1097 ;
1098 [label="X[1] <= 0.526\ngini = 0.111\nsamples = 17\nvalue = [16, 1]"] ;
1096 -> 1098 ;
1099 [label="X[2] <= 0.556\ngini = 0.375\nsamples = 4\nvalue = [3, 1]"] ;
1098 -> 1099 ;
1100 [label="gini = 0.5\nsamples = 2\nvalue = [1, 1]"] ;
1099 -> 1100 ;
1101 [label="gini = 0.0\nsamples = 2\nvalue = [2, 0]"] ;
1099 -> 1101 ;
1102 [label="gini = 0.0\nsamples = 13\nvalue = [13, 0]"] ;
1098 -> 1102 ;
1103 [label="X[1] <= 0.868\ngini = 0.495\nsamples = 153\nvalue = [69, 84]"] ;
1023 -> 1103 ;
1104 [label="X[1] <= 0.658\ngini = 0.5\nsamples = 112\nvalue = [55, 57]"] ;
1103 -> 1104 ;
1105 [label="X[2] <= 0.056\ngini = 0.497\nsamples = 93\nvalue = [43, 50]"] ;
1104 -> 1105 ;
1106 [label="X[0] <= 0.33\ngini = 0.471\nsamples = 29\nvalue = [11, 18]"] ;
1105 -> 1106 ;
1107 [label="gini = 0.0\nsamples = 4\nvalue = [0, 4]"] ;
1106 -> 1107 ;
1108 [label="X[0] <= 0.332\ngini = 0.493\nsamples = 25\nvalue = [11, 14]"] ;
1106 -> 1108 ;
1109 [label="gini = 0.0\nsamples = 2\nvalue = [2, 0]"] ;
1108 -> 1109 ;
1110 [label="X[0] <= 0.333\ngini = 0.476\nsamples = 23\nvalue = [9, 14]"] ;
1108 -> 1110 ;
1111 [label="gini = 0.0\nsamples = 2\nvalue = [0, 2]"] ;
1110 -> 1111 ;
1112 [label="gini = 0.49\nsamples = 21\nvalue = [9, 12]"] ;
1110 -> 1112 ;
1113 [label="X[2] <= 0.278\ngini = 0.5\nsamples = 64\nvalue = [32, 32]"] ;
1105 -> 1113 ;
1114 [label="gini = 0.0\nsamples = 2\nvalue = [2, 0]"] ;
1113 -> 1114 ;
1115 [label="X[0] <= 0.342\ngini = 0.499\nsamples = 62\nvalue = [30, 32]"] ;
1113 -> 1115 ;
1116 [label="X[0] <= 0.337\ngini = 0.499\nsamples = 48\nvalue = [25, 23]"] ;
1115 -> 1116 ;
1117 [label="gini = 0.5\nsamples = 45\nvalue = [22, 23]"] ;
1116 -> 1117 ;
1118 [label="gini = 0.0\nsamples = 3\nvalue = [3, 0]"] ;
1116 -> 1118 ;
1119 [label="X[0] <= 0.348\ngini = 0.459\nsamples = 14\nvalue = [5, 9]"] ;
1115 -> 1119 ;
1120 [label="gini = 0.0\nsamples = 4\nvalue = [0, 4]"] ;
1119 -> 1120 ;
1121 [label="gini = 0.5\nsamples = 10\nvalue = [5, 5]"] ;
1119 -> 1121 ;
1122 [label="X[0] <= 0.329\ngini = 0.465\nsamples = 19\nvalue = [12, 7]"] ;
1104 -> 1122 ;
1123 [label="X[0] <= 0.328\ngini = 0.375\nsamples = 4\nvalue = [1, 3]"] ;
1122 -> 1123 ;
1124 [label="gini = 0.0\nsamples = 1\nvalue = [1, 0]"] ;
1123 -> 1124 ;
1125 [label="gini = 0.0\nsamples = 3\nvalue = [0, 3]"] ;
1123 -> 1125 ;
1126 [label="X[0] <= 0.359\ngini = 0.391\nsamples = 15\nvalue = [11, 4]"] ;
1122 -> 1126 ;
1127 [label="X[0] <= 0.346\ngini = 0.337\nsamples = 14\nvalue = [11, 3]"] ;
1126 -> 1127 ;
1128 [label="X[2] <= 0.111\ngini = 0.444\nsamples = 9\nvalue = [6, 3]"] ;
1127 -> 1128 ;
1129 [label="gini = 0.444\nsamples = 3\nvalue = [1, 2]"] ;
1128 -> 1129 ;
1130 [label="gini = 0.278\nsamples = 6\nvalue = [5, 1]"] ;
1128 -> 1130 ;
1131 [label="gini = 0.0\nsamples = 5\nvalue = [5, 0]"] ;
1127 -> 1131 ;
1132 [label="gini = 0.0\nsamples = 1\nvalue = [0, 1]"] ;
1126 -> 1132 ;
1133 [label="X[0] <= 0.355\ngini = 0.45\nsamples = 41\nvalue = [14, 27]"] ;
1103 -> 1133 ;
1134 [label="X[0] <= 0.344\ngini = 0.47\nsamples = 37\nvalue = [14, 23]"] ;
1133 -> 1134 ;
1135 [label="X[1] <= 0.921\ngini = 0.43\nsamples = 32\nvalue = [10, 22]"] ;
1134 -> 1135 ;
1136 [label="X[0] <= 0.336\ngini = 0.305\nsamples = 16\nvalue = [3, 13]"] ;
1135 -> 1136 ;
1137 [label="X[0] <= 0.333\ngini = 0.397\nsamples = 11\nvalue = [3, 8]"] ;
1136 -> 1137 ;
1138 [label="gini = 0.32\nsamples = 10\nvalue = [2, 8]"] ;
1137 -> 1138 ;
1139 [label="gini = 0.0\nsamples = 1\nvalue = [1, 0]"] ;
1137 -> 1139 ;
1140 [label="gini = 0.0\nsamples = 5\nvalue = [0, 5]"] ;
1136 -> 1140 ;
1141 [label="X[0] <= 0.332\ngini = 0.492\nsamples = 16\nvalue = [7, 9]"] ;
1135 -> 1141 ;
1142 [label="X[0] <= 0.328\ngini = 0.397\nsamples = 11\nvalue = [3, 8]"] ;
1141 -> 1142 ;
1143 [label="gini = 0.0\nsamples = 1\nvalue = [1, 0]"] ;
1142 -> 1143 ;
1144 [label="gini = 0.32\nsamples = 10\nvalue = [2, 8]"] ;
1142 -> 1144 ;
1145 [label="X[3] <= 0.5\ngini = 0.32\nsamples = 5\nvalue = [4, 1]"] ;
1141 -> 1145 ;
1146 [label="gini = 0.0\nsamples = 3\nvalue = [3, 0]"] ;
1145 -> 1146 ;
1147 [label="gini = 0.5\nsamples = 2\nvalue = [1, 1]"] ;
1145 -> 1147 ;
1148 [label="X[0] <= 0.354\ngini = 0.32\nsamples = 5\nvalue = [4, 1]"] ;
1134 -> 1148 ;
1149 [label="gini = 0.0\nsamples = 3\nvalue = [3, 0]"] ;
1148 -> 1149 ;
1150 [label="X[0] <= 0.354\ngini = 0.5\nsamples = 2\nvalue = [1, 1]"] ;
1148 -> 1150 ;
1151 [label="gini = 0.0\nsamples = 1\nvalue = [0, 1]"] ;
1150 -> 1151 ;
1152 [label="gini = 0.0\nsamples = 1\nvalue = [1, 0]"] ;
1150 -> 1152 ;
1153 [label="gini = 0.0\nsamples = 4\nvalue = [0, 4]"] ;
1133 -> 1153 ;
1154 [label="X[3] <= 0.5\ngini = 0.366\nsamples = 58\nvalue = [44, 14]"] ;
1022 -> 1154 ;
1155 [label="X[2] <= 0.333\ngini = 0.472\nsamples = 21\nvalue = [13, 8]"] ;
1154 -> 1155 ;
1156 [label="X[1] <= 0.921\ngini = 0.469\nsamples = 8\nvalue = [3, 5]"] ;
1155 -> 1156 ;
1157 [label="X[0] <= 0.377\ngini = 0.408\nsamples = 7\nvalue = [2, 5]"] ;
1156 -> 1157 ;
1158 [label="gini = 0.0\nsamples = 4\nvalue = [0, 4]"] ;
1157 -> 1158 ;
1159 [label="X[0] <= 0.379\ngini = 0.444\nsamples = 3\nvalue = [2, 1]"] ;
1157 -> 1159 ;
1160 [label="gini = 0.0\nsamples = 1\nvalue = [1, 0]"] ;
1159 -> 1160 ;
1161 [label="X[0] <= 0.38\ngini = 0.5\nsamples = 2\nvalue = [1, 1]"] ;
1159 -> 1161 ;
1162 [label="gini = 0.0\nsamples = 1\nvalue = [0, 1]"] ;
1161 -> 1162 ;
1163 [label="gini = 0.0\nsamples = 1\nvalue = [1, 0]"] ;
1161 -> 1163 ;
1164 [label="gini = 0.0\nsamples = 1\nvalue = [1, 0]"] ;
1156 -> 1164 ;
1165 [label="X[0] <= 0.379\ngini = 0.355\nsamples = 13\nvalue = [10, 3]"] ;
1155 -> 1165 ;
1166 [label="X[1] <= 0.868\ngini = 0.198\nsamples = 9\nvalue = [8, 1]"] ;
1165 -> 1166 ;
1167 [label="gini = 0.0\nsamples = 6\nvalue = [6, 0]"] ;
1166 -> 1167 ;
1168 [label="X[0] <= 0.376\ngini = 0.444\nsamples = 3\nvalue = [2, 1]"] ;
1166 -> 1168 ;
1169 [label="gini = 0.0\nsamples = 1\nvalue = [0, 1]"] ;
1168 -> 1169 ;
1170 [label="gini = 0.0\nsamples = 2\nvalue = [2, 0]"] ;
1168 -> 1170 ;
1171 [label="X[2] <= 0.611\ngini = 0.5\nsamples = 4\nvalue = [2, 2]"] ;
1165 -> 1171 ;
1172 [label="gini = 0.0\nsamples = 1\nvalue = [1, 0]"] ;
1171 -> 1172 ;
1173 [label="X[0] <= 0.38\ngini = 0.444\nsamples = 3\nvalue = [1, 2]"] ;
1171 -> 1173 ;
1174 [label="X[1] <= 0.289\ngini = 0.5\nsamples = 2\nvalue = [1, 1]"] ;
1173 -> 1174 ;
1175 [label="gini = 0.0\nsamples = 1\nvalue = [0, 1]"] ;
1174 -> 1175 ;
1176 [label="gini = 0.0\nsamples = 1\nvalue = [1, 0]"] ;
1174 -> 1176 ;
1177 [label="gini = 0.0\nsamples = 1\nvalue = [0, 1]"] ;
1173 -> 1177 ;
1178 [label="X[0] <= 0.375\ngini = 0.272\nsamples = 37\nvalue = [31, 6]"] ;
1154 -> 1178 ;
1179 [label="gini = 0.0\nsamples = 12\nvalue = [12, 0]"] ;
1178 -> 1179 ;
1180 [label="X[0] <= 0.376\ngini = 0.365\nsamples = 25\nvalue = [19, 6]"] ;
1178 -> 1180 ;
1181 [label="gini = 0.0\nsamples = 1\nvalue = [0, 1]"] ;
1180 -> 1181 ;
1182 [label="X[2] <= 0.611\ngini = 0.33\nsamples = 24\nvalue = [19, 5]"] ;
1180 -> 1182 ;
1183 [label="X[1] <= 0.921\ngini = 0.133\nsamples = 14\nvalue = [13, 1]"] ;
1182 -> 1183 ;
1184 [label="gini = 0.0\nsamples = 12\nvalue = [12, 0]"] ;
1183 -> 1184 ;
1185 [label="X[0] <= 0.379\ngini = 0.5\nsamples = 2\nvalue = [1, 1]"] ;
1183 -> 1185 ;
1186 [label="gini = 0.0\nsamples = 1\nvalue = [1, 0]"] ;
1185 -> 1186 ;
1187 [label="gini = 0.0\nsamples = 1\nvalue = [0, 1]"] ;
1185 -> 1187 ;
1188 [label="X[1] <= 0.447\ngini = 0.48\nsamples = 10\nvalue = [6, 4]"] ;
1182 -> 1188 ;
1189 [label="gini = 0.0\nsamples = 2\nvalue = [2, 0]"] ;
1188 -> 1189 ;
1190 [label="X[2] <= 0.722\ngini = 0.5\nsamples = 8\nvalue = [4, 4]"] ;
1188 -> 1190 ;
1191 [label="gini = 0.0\nsamples = 2\nvalue = [0, 2]"] ;
1190 -> 1191 ;
1192 [label="X[1] <= 0.763\ngini = 0.444\nsamples = 6\nvalue = [4, 2]"] ;
1190 -> 1192 ;
1193 [label="gini = 0.5\nsamples = 4\nvalue = [2, 2]"] ;
1192 -> 1193 ;
1194 [label="gini = 0.0\nsamples = 2\nvalue = [2, 0]"] ;
1192 -> 1194 ;
1195 [label="X[0] <= 0.381\ngini = 0.471\nsamples = 66\nvalue = [25, 41]"] ;
1021 -> 1195 ;
1196 [label="X[0] <= 0.381\ngini = 0.375\nsamples = 32\nvalue = [8, 24]"] ;
1195 -> 1196 ;
1197 [label="X[0] <= 0.381\ngini = 0.426\nsamples = 26\nvalue = [8, 18]"] ;
1196 -> 1197 ;
1198 [label="X[1] <= 0.789\ngini = 0.363\nsamples = 21\nvalue = [5, 16]"] ;
1197 -> 1198 ;
1199 [label="X[0] <= 0.38\ngini = 0.165\nsamples = 11\nvalue = [1, 10]"] ;
1198 -> 1199 ;
1200 [label="X[1] <= 0.553\ngini = 0.375\nsamples = 4\nvalue = [1, 3]"] ;
1199 -> 1200 ;
1201 [label="X[3] <= 0.5\ngini = 0.5\nsamples = 2\nvalue = [1, 1]"] ;
1200 -> 1201 ;
1202 [label="gini = 0.0\nsamples = 1\nvalue = [1, 0]"] ;
1201 -> 1202 ;
1203 [label="gini = 0.0\nsamples = 1\nvalue = [0, 1]"] ;
1201 -> 1203 ;
1204 [label="gini = 0.0\nsamples = 2\nvalue = [0, 2]"] ;
1200 -> 1204 ;
1205 [label="gini = 0.0\nsamples = 7\nvalue = [0, 7]"] ;
1199 -> 1205 ;
1206 [label="X[3] <= 0.5\ngini = 0.48\nsamples = 10\nvalue = [4, 6]"] ;
1198 -> 1206 ;
1207 [label="X[2] <= 0.278\ngini = 0.48\nsamples = 5\nvalue = [3, 2]"] ;
1206 -> 1207 ;
1208 [label="gini = 0.0\nsamples = 1\nvalue = [0, 1]"] ;
1207 -> 1208 ;
1209 [label="X[2] <= 0.833\ngini = 0.375\nsamples = 4\nvalue = [3, 1]"] ;
1207 -> 1209 ;
1210 [label="gini = 0.0\nsamples = 3\nvalue = [3, 0]"] ;
1209 -> 1210 ;
1211 [label="gini = 0.0\nsamples = 1\nvalue = [0, 1]"] ;
1209 -> 1211 ;
1212 [label="X[2] <= 0.889\ngini = 0.32\nsamples = 5\nvalue = [1, 4]"] ;
1206 -> 1212 ;
1213 [label="gini = 0.0\nsamples = 3\nvalue = [0, 3]"] ;
1212 -> 1213 ;
1214 [label="X[0] <= 0.38\ngini = 0.5\nsamples = 2\nvalue = [1, 1]"] ;
1212 -> 1214 ;
1215 [label="gini = 0.0\nsamples = 1\nvalue = [0, 1]"] ;
1214 -> 1215 ;
1216 [label="gini = 0.0\nsamples = 1\nvalue = [1, 0]"] ;
1214 -> 1216 ;
1217 [label="X[2] <= 0.722\ngini = 0.48\nsamples = 5\nvalue = [3, 2]"] ;
1197 -> 1217 ;
1218 [label="gini = 0.0\nsamples = 3\nvalue = [3, 0]"] ;
1217 -> 1218 ;
1219 [label="gini = 0.0\nsamples = 2\nvalue = [0, 2]"] ;
1217 -> 1219 ;
1220 [label="gini = 0.0\nsamples = 6\nvalue = [0, 6]"] ;
1196 -> 1220 ;
1221 [label="X[0] <= 0.382\ngini = 0.5\nsamples = 34\nvalue = [17, 17]"] ;
1195 -> 1221 ;
1222 [label="X[1] <= 0.447\ngini = 0.397\nsamples = 11\nvalue = [8, 3]"] ;
1221 -> 1222 ;
1223 [label="X[0] <= 0.381\ngini = 0.444\nsamples = 3\nvalue = [1, 2]"] ;
1222 -> 1223 ;
1224 [label="gini = 0.0\nsamples = 1\nvalue = [1, 0]"] ;
1223 -> 1224 ;
1225 [label="gini = 0.0\nsamples = 2\nvalue = [0, 2]"] ;
1223 -> 1225 ;
1226 [label="X[0] <= 0.381\ngini = 0.219\nsamples = 8\nvalue = [7, 1]"] ;
1222 -> 1226 ;
1227 [label="gini = 0.0\nsamples = 1\nvalue = [0, 1]"] ;
1226 -> 1227 ;
1228 [label="gini = 0.0\nsamples = 7\nvalue = [7, 0]"] ;
1226 -> 1228 ;
1229 [label="X[3] <= 0.5\ngini = 0.476\nsamples = 23\nvalue = [9, 14]"] ;
1221 -> 1229 ;
1230 [label="X[0] <= 0.383\ngini = 0.444\nsamples = 9\nvalue = [6, 3]"] ;
1229 -> 1230 ;
1231 [label="gini = 0.0\nsamples = 3\nvalue = [0, 3]"] ;
1230 -> 1231 ;
1232 [label="gini = 0.0\nsamples = 6\nvalue = [6, 0]"] ;
1230 -> 1232 ;
1233 [label="X[1] <= 0.447\ngini = 0.337\nsamples = 14\nvalue = [3, 11]"] ;
1229 -> 1233 ;
1234 [label="X[0] <= 0.383\ngini = 0.444\nsamples = 3\nvalue = [2, 1]"] ;
1233 -> 1234 ;
1235 [label="gini = 0.0\nsamples = 1\nvalue = [1, 0]"] ;
1234 -> 1235 ;
1236 [label="X[2] <= 0.222\ngini = 0.5\nsamples = 2\nvalue = [1, 1]"] ;
1234 -> 1236 ;
1237 [label="gini = 0.0\nsamples = 1\nvalue = [1, 0]"] ;
1236 -> 1237 ;
1238 [label="gini = 0.0\nsamples = 1\nvalue = [0, 1]"] ;
1236 -> 1238 ;
1239 [label="X[2] <= 0.833\ngini = 0.165\nsamples = 11\nvalue = [1, 10]"] ;
1233 -> 1239 ;
1240 [label="gini = 0.0\nsamples = 10\nvalue = [0, 10]"] ;
1239 -> 1240 ;
1241 [label="gini = 0.0\nsamples = 1\nvalue = [1, 0]"] ;
1239 -> 1241 ;
1242 [label="X[0] <= 0.535\ngini = 0.47\nsamples = 437\nvalue = [272, 165]"] ;
1020 -> 1242 ;
1243 [label="X[0] <= 0.485\ngini = 0.448\nsamples = 304\nvalue = [201, 103]"] ;
1242 -> 1243 ;
1244 [label="X[0] <= 0.483\ngini = 0.465\nsamples = 231\nvalue = [146, 85]"] ;
1243 -> 1244 ;
1245 [label="X[1] <= 0.974\ngini = 0.45\nsamples = 219\nvalue = [144, 75]"] ;
1244 -> 1245 ;
1246 [label="X[0] <= 0.394\ngini = 0.436\nsamples = 209\nvalue = [142, 67]"] ;
1245 -> 1246 ;
1247 [label="X[0] <= 0.389\ngini = 0.18\nsamples = 10\nvalue = [9, 1]"] ;
1246 -> 1247 ;
1248 [label="X[0] <= 0.389\ngini = 0.444\nsamples = 3\nvalue = [2, 1]"] ;
1247 -> 1248 ;
1249 [label="gini = 0.0\nsamples = 2\nvalue = [2, 0]"] ;
1248 -> 1249 ;
1250 [label="gini = 0.0\nsamples = 1\nvalue = [0, 1]"] ;
1248 -> 1250 ;
1251 [label="gini = 0.0\nsamples = 7\nvalue = [7, 0]"] ;
1247 -> 1251 ;
1252 [label="X[0] <= 0.396\ngini = 0.443\nsamples = 199\nvalue = [133, 66]"] ;
1246 -> 1252 ;
1253 [label="gini = 0.0\nsamples = 3\nvalue = [0, 3]"] ;
1252 -> 1253 ;
1254 [label="X[2] <= 0.722\ngini = 0.436\nsamples = 196\nvalue = [133, 63]"] ;
1252 -> 1254 ;
1255 [label="X[0] <= 0.483\ngini = 0.459\nsamples = 129\nvalue = [83, 46]"] ;
1254 -> 1255 ;
1256 [label="X[0] <= 0.412\ngini = 0.453\nsamples = 127\nvalue = [83, 44]"] ;
1255 -> 1256 ;
1257 [label="gini = 0.291\nsamples = 17\nvalue = [14, 3]"] ;
1256 -> 1257 ;
1258 [label="gini = 0.468\nsamples = 110\nvalue = [69, 41]"] ;
1256 -> 1258 ;
1259 [label="gini = 0.0\nsamples = 2\nvalue = [0, 2]"] ;
1255 -> 1259 ;
1260 [label="X[0] <= 0.406\ngini = 0.379\nsamples = 67\nvalue = [50, 17]"] ;
1254 -> 1260 ;
1261 [label="X[1] <= 0.553\ngini = 0.48\nsamples = 5\nvalue = [2, 3]"] ;
1260 -> 1261 ;
1262 [label="gini = 0.0\nsamples = 2\nvalue = [0, 2]"] ;
1261 -> 1262 ;
1263 [label="gini = 0.444\nsamples = 3\nvalue = [2, 1]"] ;
1261 -> 1263 ;
1264 [label="X[1] <= 0.395\ngini = 0.35\nsamples = 62\nvalue = [48, 14]"] ;
1260 -> 1264 ;
1265 [label="gini = 0.0\nsamples = 10\nvalue = [10, 0]"] ;
1264 -> 1265 ;
1266 [label="gini = 0.393\nsamples = 52\nvalue = [38, 14]"] ;
1264 -> 1266 ;
1267 [label="X[2] <= 0.722\ngini = 0.32\nsamples = 10\nvalue = [2, 8]"] ;
1245 -> 1267 ;
